308 20
1 -0.15548 -0.28993 0.40518 -0.39190 -0.31466 0.21162 0.29613 -0.26452 0.65299 -0.50266 -0.00619 -0.14045 -0.26557 1.09490 -0.26273 -0.16335 -0.54551 -0.46556 -0.28664 0.10559
2 -0.52063 -0.86952 -0.07852 -0.08491 0.02449 -0.18182 -0.54260 -0.34864 0.35349 -0.58176 -0.09834 -0.00568 -0.08692 -0.46580 0.57801 0.75020 -0.17787 -0.27940 -0.80162 0.73601
3 0.66652 0.21831 -0.19735 0.32885 0.37240 -0.09648 -0.59341 -0.06691 -0.25035 0.83984 0.12748 0.13304 0.42220 -0.32181 0.26584 0.68316 -0.31724 0.61445 -0.53721 -0.14873
4 -0.52585 -0.83694 0.04151 -0.03185 -0.04407 -0.33631 -0.44854 -0.30452 0.30834 -0.56540 -0.14569 -0.02057 -0.18266 -0.49863 0.61320 0.85142 -0.09632 -0.32909 -0.89382 0.71862
5 -0.55565 -0.82515 -0.03423 -0.01570 -0.03247 -0.24891 -0.43878 -0.39134 0.30657 -0.60137 -0.05970 -0.06204 -0.05829 -0.45652 0.58183 0.81694 -0.18557 -0.26254 -0.91701 0.70324
6 0.00414 0.19359 -0.08695 -0.01705 -0.09528 -0.01408 -0.06324 -0.02342 0.02694 0.05179 -0.08495 -0.02944 0.09819 -0.13723 -0.07730 -0.03295 -0.05320 -0.10354 -0.12756 -0.06348
7 -0.61332 0.63600 0.35312 -0.35394 -0.77571 0.62383 0.64128 -0.51656 0.34990 0.18222 0.14760 0.03899 0.04191 -0.06375 0.66480 -0.28040 -0.51575 0.53416 0.76877 -0.15759
8 0.42187 0.20410 -0.49000 -0.36932 0.45892 -0.22409 0.86472 -0.69404 -0.43394 -0.02736 -0.03390 0.25054 -0.13957 -0.78446 0.08714 0.05115 -0.38135 -0.38595 -0.18677 0.17047
9 -0.53807 -0.86835 -0.07316 -0.08419 0.00822 -0.27338 -0.54264 -0.39194 0.28991 -0.53544 -0.07184 -0.04248 -0.09498 -0.44667 0.60402 0.79005 -0.10915 -0.17812 -0.80219 0.71868
10 -0.06504 0.08712 0.53344 0.21134 0.55885 -0.79149 -0.32455 0.86340 0.32188 -0.23988 -0.33119 -1.17320 0.11280 0.39743 -0.52642 0.19779 -0.17477 -0.11622 -0.51058 -0.02220
11 -0.34139 -0.12158 0.21074 0.31407 0.49071 0.08107 0.89136 0.15649 -0.23617 0.45116 -0.61444 0.36644 0.46101 -0.64600 -0.83503 -0.27299 0.53550 0.93012 0.03905 0.02256
12 0.34069 0.03162 0.10100 0.23457 -0.50817 0.07156 0.22371 -0.26220 -0.66487 -0.14535 0.71001 -0.37552 -0.89711 -1.11507 0.13046 0.00865 0.53081 -0.06903 0.11182 0.72081
13 -0.51126 0.03535 -0.44185 -0.31168 0.36874 0.14274 0.45625 0.44799 -0.42016 0.12447 -0.10374 -0.22639 0.61892 -0.24330 0.17666 -0.81559 -0.07102 0.74921 -0.92756 -0.78590
14 -0.16129 -0.61160 -0.06072 0.33663 0.00142 -0.93001 -0.12155 -0.47384 -0.27569 0.58870 0.32824 -0.07532 -0.79658 0.24827 0.00693 0.27240 0.20347 -0.50088 0.15554 -0.29907
15 0.26108 0.09723 0.29465 0.75535 0.34294 -0.24315 -0.50757 -0.77291 0.05171 -0.30790 -0.67522 0.44441 -0.77945 0.45539 -0.08920 -0.17110 0.97790 -0.34567 -0.21903 -0.45783
16 -0.07268 -0.69440 -0.64243 -0.27332 -0.08062 0.10486 0.01252 -1.06242 -0.19677 -0.60490 -0.16381 0.25066 0.18232 0.26057 0.33459 0.44510 0.22706 0.08342 -0.81200 1.10553
17 0.03103 0.07050 0.95907 0.77685 -0.14311 0.31471 0.36770 0.44317 -0.66753 0.44853 -0.29697 0.48324 -0.32865 -0.63231 -0.57933 0.59074 0.06765 0.44166 0.62179 -0.13310
18 0.42466 -0.19756 -0.45088 -0.01996 -0.05903 0.02954 0.20906 0.96000 -0.12827 -0.56528 0.08208 0.29218 0.96340 0.27194 0.35759 0.01272 -0.43390 0.02470 0.21302 -0.30552
19 0.02520 -0.77239 -0.48093 -0.25743 -0.18666 0.05803 -0.20386 -1.03051 0.03023 -0.64971 -0.27886 0.18036 0.17413 0.12671 0.48443 0.40030 0.31813 -0.15113 -0.79346 1.05517
20 0.34808 0.16778 0.27973 0.07106 0.45969 0.63923 0.02717 -0.13548 0.40815 0.00955 0.22541 -0.15348 0.71970 -0.77058 -0.25160 -0.32081 -0.63327 0.65629 0.25793 0.18940
21 0.76337 -0.25731 0.18065 0.54889 0.53689 0.00038 0.90981 -0.19221 -0.52354 -0.24294 -0.29867 0.18984 -0.53478 0.50802 0.71882 0.37632 -0.08029 -0.29949 0.64159 0.10623
22 0.90948 0.00027 -0.24851 1.10495 0.14511 0.11734 0.38620 0.01549 0.52578 0.32661 0.11506 -0.08148 0.05091 0.83764 -0.26098 -0.22769 0.28897 0.77149 0.51512 -0.26594
23 0.77709 -0.26814 0.29908 0.53266 0.50671 -0.00971 1.00225 -0.34716 -0.45877 -0.31654 -0.16013 0.20627 -0.42195 0.51607 0.74076 0.37567 -0.19190 -0.29803 0.62995 0.10588
24 0.50134 0.27321 -0.09378 0.20715 -0.31921 0.88308 -0.03290 0.49800 0.55848 0.23271 -0.17097 -0.21065 -0.22766 0.34359 0.52157 0.19796 0.48948 0.69152 0.30868 -0.19820
25 -0.77725 -0.20467 -0.47837 -1.11266 0.79501 0.23788 0.39994 0.51553 0.04965 0.19343 0.20373 -0.54730 -0.12307 -0.41870 0.18365 0.30624 -0.16807 -0.46960 0.31860 0.45642
26 -0.04857 0.08715 -0.11298 -0.56298 -0.36061 -1.05379 -0.23126 0.22357 0.76255 -0.29396 0.44922 0.67994 -0.13876 -0.52135 0.79176 -0.25050 0.58788 0.36069 0.34271 0.00608
27 -0.63529 0.23023 -0.39584 -0.32119 -0.77140 -0.54134 -0.00989 0.40186 0.45256 -0.57381 0.82845 0.09697 0.30943 -0.14375 1.14066 -0.21732 0.30318 0.41290 0.30235 -0.04956
28 0.05213 0.11381 0.16168 -0.00222 0.10437 0.09290 -0.05004 0.13982 0.06402 0.04587 0.00295 -0.07028 -0.05218 0.08900 -0.09931 0.14683 0.09190 0.14297 -0.13144 0.07406
29 0.28864 -0.58914 -0.02741 0.02765 0.47114 0.14860 -0.59645 0.52405 -0.44078 0.76984 -0.37624 -0.97902 -0.32841 -0.76405 -0.04427 -0.14965 0.34734 -0.34385 -0.37804 -0.47575
30 -0.62953 0.65787 0.32850 -0.32451 -0.84225 0.70803 0.65021 -0.49283 0.35694 0.20691 0.14277 -0.03162 0.00066 -0.00448 0.71601 -0.33249 -0.49217 0.48486 0.79413 -0.15593
31 -0.63600 0.63046 0.27657 -0.40276 -0.93513 0.37544 0.58151 -0.30965 0.52354 -0.13039 0.44419 0.16592 -0.01933 -0.30609 0.97260 -0.20914 -0.45527 0.66623 0.43854 -0.28578
32 -0.53930 0.47531 0.44479 -0.43427 -0.84749 0.65556 0.32878 -0.18789 0.53869 -0.17858 0.47448 0.09481 0.16493 -0.29209 1.13984 -0.11226 -0.23679 0.66749 0.38963 -0.26464
33 -0.58733 0.50667 0.17907 -0.52608 -0.92644 0.23133 0.29412 -0.06104 0.49502 -0.34154 0.54002 0.23685 0.13756 -0.38421 1.20899 -0.04084 -0.29867 0.76371 0.43795 -0.10720
34 -0.23646 0.46151 -0.00488 -0.22787 0.22287 -0.02970 -0.21696 0.45799 0.57312 -0.28300 -0.77166 -0.05695 -0.68188 -0.15828 -0.37493 0.78087 -0.41579 -0.09872 -0.03668 0.66212
35 -0.15391 0.65451 0.10049 0.00084 -0.20771 -0.44087 0.42652 0.27423 -0.14073 0.92257 -0.20053 0.50058 -0.31738 0.41210 -0.43707 0.23572 -0.08701 -0.14494 0.46050 0.69071
36 -0.73274 -0.10028 -0.52746 -1.07032 0.68149 0.21330 0.42812 0.45265 -0.02561 0.19107 0.07098 -0.59952 -0.07887 -0.43422 0.10536 0.48096 -0.17912 -0.54533 0.25013 0.50318
37 -0.76085 -0.21556 -0.44800 -1.10534 0.78476 0.27970 0.40429 0.55602 -0.00807 0.15096 0.22602 -0.56313 -0.19362 -0.34687 0.19729 0.34109 -0.13353 -0.51635 0.26351 0.49771
38 0.77465 0.25543 -0.06465 -0.24046 -0.16909 0.81262 0.16802 -0.47940 0.45287 0.74090 -0.10510 0.52841 -0.04834 -0.19621 -0.13667 -0.92195 -0.72897 0.33274 0.15126 -0.74102
39 0.13439 0.09350 -0.03632 0.08298 -0.33048 0.37735 -0.38664 0.08282 -0.57190 0.55583 0.79819 0.26843 0.31147 -0.37270 0.51745 -0.06350 -0.65749 -0.70800 0.18486 -0.31813
40 -0.10885 -0.04993 -0.11848 -0.11400 0.00759 -0.11076 -0.15982 0.05543 -0.11091 0.14623 0.03318 0.03817 0.13448 -0.05214 -0.07992 0.06524 0.03830 0.14105 0.14815 -0.01740
41 -0.43900 -0.27844 0.04864 0.28174 -0.24189 1.06857 0.44982 0.22231 -0.02538 -0.61714 0.12951 -0.33327 -0.19802 0.62083 0.15717 -0.32159 -0.12226 0.50997 0.17433 -0.42166
42 -0.05381 -0.02273 -0.78683 0.74867 -0.61529 0.03602 0.65229 -0.26633 -0.81762 -0.40957 0.28753 -0.80565 -0.18792 0.44822 -0.19936 0.61711 0.26671 -0.62333 0.07721 0.10581
43 -0.02369 0.12082 0.54144 0.13529 0.61063 -0.77899 -0.34413 0.83186 0.30301 -0.21477 -0.32627 -1.20383 0.11615 0.42110 -0.57816 0.16845 -0.16543 -0.10069 -0.48391 0.01754
44 0.57888 -0.42172 0.03680 0.62261 -0.22965 0.24196 0.19936 0.32776 -0.18158 0.84596 0.12755 0.45946 0.28095 -0.48248 0.27731 0.80104 0.26343 0.39563 -0.09642 -0.18886
45 -0.09911 -0.24735 0.84438 -0.29450 0.07973 -0.00677 -0.38884 -0.17621 0.43412 -0.35908 -0.39200 0.06379 -0.73152 0.39657 -0.33588 -0.44714 0.71615 0.67005 -0.29200 0.01514
46 0.62318 -0.27962 0.22421 0.48436 0.43914 0.05344 0.96589 -0.16066 -0.52408 -0.23350 -0.31139 0.15474 -0.66425 0.62392 0.77947 0.38719 -0.14896 -0.49877 0.66775 0.01499
47 -0.16611 -0.03134 0.14665 0.08894 -0.48877 -0.28939 0.02461 0.62447 -0.46132 0.24697 -0.38081 0.78630 -0.68501 0.43244 -0.61712 -0.29707 -0.02177 -0.59548 -0.73974 -0.84211
48 0.04953 0.08851 -0.06880 -0.14146 0.06847 0.00531 0.06834 -0.10221 -0.13415 0.09101 -0.10002 -0.00824 0.09476 0.07758 -0.02108 0.01606 0.03503 0.05293 0.02698 -0.12514
49 -0.20728 -0.05513 0.22245 0.06575 -0.46550 -0.29066 0.07275 0.63448 -0.43799 0.17366 -0.33315 0.70328 -0.72388 0.38492 -0.61915 -0.23649 -0.00781 -0.60531 -0.71348 -0.88878
50 -0.26907 -0.09755 0.39702 0.09497 -0.44225 -0.14393 -0.01894 0.73651 -0.41690 0.24211 -0.33840 0.79867 -0.70059 0.35710 -0.63998 -0.23602 0.06626 -0.57564 -0.72849 -0.84853
51 0.42116 0.91631 -0.59271 -0.07687 -1.23163 -0.29701 0.05819 -0.54747 0.13924 -0.33224 -0.08765 0.34444 0.30756 -0.53445 -0.10349 -0.31217 -0.58804 0.14438 0.12384 0.37667
52 -0.52317 0.25105 -0.33793 -0.10884 -0.70939 -0.57655 -0.22518 0.26430 0.53648 -0.52458 0.99858 0.03168 0.24587 -0.27082 1.10970 -0.14642 0.27662 0.42787 0.39754 -0.06153
53 0.31631 -0.01056 0.06441 0.23639 -0.50275 0.03744 0.21564 -0.22890 -0.66025 -0.14664 0.71692 -0.40364 -0.88251 -1.10369 0.16846 0.02972 0.52623 -0.02515 0.12800 0.72868
54 0.84882 -0.69045 0.23915 0.10550 -0.23697 0.17692 0.66304 0.39495 0.30189 -0.28974 -0.06763 0.38370 0.22117 -0.01609 0.58743 -0.94770 0.72419 -0.33977 0.49676 -0.32381
55 0.36243 0.03601 0.09031 0.26185 -0.49926 0.07836 0.22327 -0.23844 -0.66254 -0.14821 0.72908 -0.41661 -0.89704 -1.10703 0.13425 0.03669 0.52872 -0.05601 0.10512 0.73859
56 0.42157 0.92564 -0.59860 -0.07270 -1.23060 -0.29697 0.06491 -0.53382 0.14729 -0.34254 -0.08146 0.33069 0.31904 -0.54716 -0.08395 -0.32176 -0.57373 0.15254 0.12356 0.37109
57 0.73603 -0.37567 0.26570 0.58324 0.62298 -0.03005 0.95331 -0.27897 -0.48685 -0.12067 -0.37218 0.30698 -0.40027 0.49537 0.80757 0.35581 -0.16346 -0.25868 0.59923 0.09941
58 0.73557 -0.34699 0.23528 0.59646 0.55423 0.03012 0.94569 -0.17594 -0.54474 -0.13334 -0.31949 0.22462 -0.41556 0.56206 0.82104 0.37261 -0.15461 -0.34266 0.55062 0.14556
59 -0.13721 0.07891 0.05433 0.58267 -0.39851 -0.64504 -0.05359 -0.06936 -0.40809 -0.60592 -0.65073 0.35953 0.52137 -0.66945 -0.64145 0.18297 -0.17926 0.24866 -0.08615 0.23221
60 0.17894 0.59004 0.59704 -0.62236 -0.05015 0.33625 0.36125 0.32990 -0.12975 0.28124 0.66088 -0.83552 -0.53542 -0.05766 -0.99097 0.51377 -0.09852 0.56115 0.23890 0.15174
61 0.09688 0.23963 0.03377 0.19190 0.56944 -0.24661 -0.56457 -0.15043 0.54441 0.25627 0.16335 0.24490 -0.29182 -0.23346 0.43323 -0.48093 0.02652 1.13576 0.33748 0.41044
62 -0.13271 0.14033 -0.21527 -0.30674 -0.41842 -0.87275 -0.33949 0.09812 0.72276 -0.26249 0.83527 0.41501 -0.14661 -0.59214 1.01987 -0.36848 0.40803 0.48010 0.45319 -0.00098
63 0.20225 0.06055 0.79229 -0.70381 -0.79047 -0.53441 0.00259 -0.30235 0.61014 0.71590 -0.28735 -0.35522 -0.38523 0.18033 -0.77381 -0.01624 -0.17569 -0.08478 -0.03728 -0.74148
64 -0.71768 0.18154 -0.27801 -0.19059 -0.68092 -0.55752 -0.01954 0.40847 0.30049 -0.67568 0.87149 0.29691 0.17312 -0.30642 1.22730 -0.01618 0.13681 0.40351 0.47287 0.01216
65 0.36994 0.33041 -0.00659 -0.26906 0.72893 -0.75834 0.00903 0.26756 1.10927 -0.63560 -0.38323 -0.06554 0.88088 0.08680 -0.08638 -0.06888 0.43934 -0.02788 -0.11160 0.52888
66 0.36577 0.25994 0.00217 -0.15386 0.64147 -0.86942 0.04012 0.36671 1.18699 -0.67484 -0.37626 -0.02463 0.84043 0.08463 -0.10266 -0.10307 0.48082 0.06644 -0.09975 0.48018
67 -0.17973 -0.02250 0.70473 -0.21137 0.54166 -0.03412 0.66300 -0.47910 0.49835 -0.07927 0.03530 -0.80223 0.04872 -0.30079 -0.45908 0.69616 0.25119 -0.39234 0.19762 -0.40660
68 1.02277 -0.43092 -0.11650 0.16137 -0.19015 -0.72856 -0.05797 -0.35779 0.06275 0.08677 0.80026 0.35171 0.37982 -0.33393 0.27340 -0.69260 -0.92167 0.18444 -0.39662 0.25638
69 0.91820 -0.60533 0.37872 0.19611 0.04162 0.13414 0.70361 0.36241 0.10981 -0.35255 0.06000 0.30239 0.14562 0.05626 0.66602 -1.00391 0.73345 -0.35982 0.50419 -0.35987
70 -0.40856 0.40096 -0.22031 -0.04114 -0.78903 -0.54672 -0.28451 0.34722 0.55682 -0.45727 0.85747 0.24387 0.06442 -0.31548 1.20086 -0.03293 0.37958 0.52240 0.15605 -0.11136
71 -0.49660 -0.69208 0.01899 -0.17081 -0.21822 0.92417 0.00263 0.11802 0.41748 0.76825 -0.46227 -0.01475 0.62089 0.43733 -0.88409 -0.35477 -0.26733 -0.04672 -0.66070 -0.22276
72 0.70430 0.28900 -0.47982 0.08049 -0.16056 -0.46998 -0.69153 0.82451 -0.54340 -0.55277 -0.47139 0.48956 0.04083 0.13069 0.04274 -0.19459 0.08481 0.16562 0.18355 -0.13852
73 -0.47443 -0.31934 -0.92945 -0.36206 -0.49504 0.36829 -0.07106 0.05380 0.69519 0.73620 0.02408 0.20277 0.21316 0.38775 -0.75323 0.00181 0.14498 0.83487 0.16186 0.59847
74 -0.17289 0.32611 0.69622 0.23424 0.03555 -0.49331 0.43619 -0.74105 -0.08853 0.58909 -0.17347 -0.44545 0.41122 -0.00490 0.30605 0.14482 -0.73508 0.36303 0.18868 0.33664
75 -0.15917 -0.30503 0.34099 0.01588 -0.83092 -0.06906 -0.41030 0.00496 -0.91745 0.76177 -0.22125 0.24559 -0.64295 -0.20937 -0.26429 -0.23517 0.19042 -0.02929 0.33474 -0.01970
76 0.88286 -0.72939 0.23635 0.13631 -0.26870 0.17694 0.58117 0.31161 0.41538 -0.35145 -0.05096 0.43799 0.14647 -0.05453 0.61432 -0.94991 0.72051 -0.33633 0.50640 -0.34433
77 0.92303 -0.95845 0.17347 -0.03337 -0.45708 0.20784 0.44334 0.24506 0.42705 -0.45410 -0.06689 0.35343 -0.04814 -0.03745 0.60926 -0.69179 0.73195 -0.21934 0.51042 -0.36146
78 0.22037 -0.07982 0.75563 -0.10811 -0.68149 0.67332 -0.49169 -0.67523 -0.53824 -0.32740 0.06919 -0.30705 0.18214 0.59416 -0.34412 -0.38554 -0.33886 -0.30428 -0.02403 0.20031
79 -0.11674 -0.28284 -0.00975 0.09625 0.51019 0.27398 -0.47968 -0.44071 0.30639 -0.15994 -0.45725 0.90437 -0.27904 0.01557 -0.46858 -0.30333 0.11534 0.62384 0.50989 -0.54114
80 -0.61851 0.61674 0.25487 -0.36006 -0.78622 0.65315 0.62758 -0.52479 0.28356 0.11569 0.09002 0.05794 0.00604 0.00346 0.66229 -0.27142 -0.40261 0.54250 0.71090 -0.17560
81 -0.50819 0.25694 -0.32154 -0.14000 -0.72514 -0.53953 -0.12692 0.34533 0.46446 -0.52482 0.95426 0.20111 0.27319 -0.32072 1.00936 -0.03602 0.15477 0.46305 0.36151 -0.01345
82 -0.58803 0.18326 -0.28653 -0.31991 -0.76286 -0.62741 0.04205 0.44371 0.32343 -0.50137 0.92227 0.22011 0.31964 -0.34056 1.08442 -0.03377 0.30435 0.44521 0.32568 -0.09978
83 -0.46374 0.78140 -0.32793 -0.70039 -0.27081 0.09306 -0.07280 0.32261 -0.06381 -0.06511 0.51053 -0.26502 0.07864 -0.50222 -0.77467 0.28777 0.48850 -0.28422 0.26652 -1.24188
84 -0.52958 0.23373 -0.27061 -0.20293 -0.64051 -0.56162 -0.06117 0.29335 0.48858 -0.54969 0.91625 0.22091 0.32885 -0.24082 1.14413 -0.03612 0.16820 0.43710 0.30073 -0.04481
85 -0.60455 0.27526 0.04498 0.34222 -0.41164 -0.23797 0.06903 -1.38031 0.18043 -0.50303 -0.38244 -0.44296 0.08731 0.21957 0.20761 -0.79444 -0.06574 -0.74135 -0.13661 0.23685
86 -0.83788 0.80555 -0.19166 -0.36078 0.45550 0.80553 -0.11007 0.44295 -0.66542 -0.62887 -0.40534 0.08751 -0.03050 -0.37499 -0.18577 0.33460 0.34688 0.05489 -0.77301 0.05190
87 -0.45123 0.49523 -0.63894 0.22542 -0.09121 0.72554 0.41403 0.03289 0.90449 0.42086 0.21877 -0.36803 -0.46956 0.06256 -0.23365 0.06064 -0.30243 -0.47673 -0.06223 -0.03304
88 -0.10031 -0.88345 -0.25753 -0.35081 -0.00536 -0.10747 -0.01120 -0.95528 -0.19434 -0.67351 -0.52875 -0.00754 0.05854 -0.02461 0.58335 0.22495 0.46013 0.07729 -0.85216 0.98801
89 0.05773 -0.10407 -0.00749 0.52355 -0.48694 -0.47998 0.47942 0.18067 0.36571 0.59069 -0.40603 -0.27373 -0.23065 0.09565 0.65984 -0.45339 -0.60904 -0.73213 -0.71040 0.87007
90 -0.01979 0.13358 -0.10826 0.05201 0.05429 -0.09736 -0.12274 -0.06954 0.00726 -0.05585 -0.08890 -0.05360 -0.04616 -0.11154 -0.11529 -0.03736 0.00340 -0.10021 -0.01208 0.11684
91 0.68407 0.03545 -0.25906 0.15330 0.72536 0.16183 -0.58388 -0.48752 -0.12092 -0.25821 -0.07088 0.02777 -0.24185 -0.40145 -0.58076 -0.74357 0.58782 0.39957 0.03811 -0.47187
92 0.70175 -0.51583 -0.04883 -0.52404 0.19398 -0.37608 -0.31772 -0.21103 0.12069 0.61088 1.17045 0.32296 -0.23847 -0.48020 -0.63086 0.27842 -0.35255 0.13601 -0.56489 0.25922
93 0.64363 0.47930 -0.13265 0.14344 0.00199 -0.18304 0.09685 -0.35170 -0.23295 0.18891 -0.44455 -0.38863 -0.96333 -0.29790 0.83036 0.31542 -0.41427 -0.07926 -0.28377 0.01424
94 -0.24285 -0.00911 0.18664 0.01851 -0.42990 -0.31883 0.05441 0.57994 -0.35898 0.11509 -0.33500 0.77883 -0.64222 0.42302 -0.63179 -0.27421 0.05656 -0.57863 -0.72984 -0.86880
95 0.20909 0.04768 -0.10729 -0.07275 -0.20504 -0.79630 -0.80629 -0.04744 -0.59922 0.55751 0.24670 -0.85997 -0.32387 0.13581 0.86176 0.24307 0.34001 -0.27210 0.80312 -0.26355
96 -0.21469 -0.02274 0.24864 0.05213 -0.42760 -0.32540 0.02522 0.65875 -0.37430 0.17943 -0.36666 0.76195 -0.63818 0.42714 -0.64180 -0.32271 0.01753 -0.51861 -0.67268 -0.83488
97 -0.29100 -0.08210 0.28082 0.09591 -0.38657 -0.26813 -0.06999 0.61575 -0.47541 0.21788 -0.40654 0.78090 -0.65419 0.37664 -0.58705 -0.31965 0.03305 -0.63303 -0.69632 -0.86908
98 0.78501 -0.32175 0.24775 0.50802 0.61450 -0.10066 0.93682 -0.17720 -0.51730 -0.19230 -0.32734 0.18463 -0.50544 0.47050 0.76665 0.36900 -0.16755 -0.36194 0.57860 0.17676
99 -0.29698 -0.78627 0.06975 -0.13465 -0.26401 0.97525 0.07574 0.00004 0.27203 0.81028 -0.39422 0.07003 0.65804 0.49658 -0.85329 -0.38032 -0.33094 -0.14951 -0.70481 -0.15781
100 -0.26117 0.23910 0.68479 0.03100 0.02321 -0.27279 -0.47378 -0.31450 0.39000 -0.48469 -0.55766 0.20908 0.22534 0.60446 0.31361 0.17521 -0.39701 0.41989 -0.37658 -0.78412
101 0.69917 -0.50646 -0.06263 -0.49670 0.22902 -0.39306 -0.33637 -0.15299 0.13689 0.59514 1.16640 0.33553 -0.22040 -0.52309 -0.63918 0.29719 -0.34063 0.15424 -0.55907 0.20909
102 -0.21416 -0.03318 0.22897 0.10397 -0.48990 -0.25085 0.03791 0.63384 -0.36571 0.16638 -0.31477 0.79704 -0.67292 0.37237 -0.61821 -0.22216 -0.02033 -0.65544 -0.68373 -0.87172
103 -0.00486 -0.83116 -0.10854 0.40543 0.34711 -0.53929 -0.05632 0.67708 -0.27495 -0.39722 0.22673 0.65541 0.18631 -0.11318 -0.72749 -0.21337 0.06345 0.10011 0.59552 0.08341
104 -0.05463 -0.08502 -0.78993 0.87052 -0.62678 -0.04992 0.61143 -0.18895 -0.83910 -0.29895 0.31199 -0.79485 -0.14123 0.39807 -0.10113 0.56253 0.29974 -0.59028 0.13169 0.14069
105 0.00904 -0.05771 -0.13018 -0.16043 0.43711 0.73922 -0.66497 -0.40353 0.08248 -0.19999 -0.75369 -0.50875 0.79282 0.21929 0.74293 0.93131 -0.31914 -0.18374 0.06201 -0.29560
106 0.88193 -0.75099 0.30385 0.20962 -0.29695 0.15979 0.61062 0.33350 0.39106 -0.38494 -0.09633 0.40525 0.19143 -0.08207 0.61831 -0.98319 0.76568 -0.32750 0.53515 -0.35385
107 0.84913 -0.77747 0.22848 0.22086 -0.30585 0.17775 0.59317 0.34787 0.43077 -0.34364 -0.06103 0.41318 0.11333 -0.08603 0.66600 -0.91053 0.79647 -0.33708 0.53527 -0.31887
108 -0.03125 0.29564 -0.40439 0.06872 -0.29648 -0.23922 -0.26139 0.06684 -0.05487 0.85946 0.31162 0.08931 0.35105 0.42111 -0.55967 0.29334 -0.18488 0.55951 -0.92830 0.48622
109 0.02411 -0.11008 -0.11712 -0.21012 0.41691 0.86220 -0.75538 -0.33626 -0.00058 -0.28211 -0.71816 -0.45766 0.75822 0.28153 0.79177 0.93883 -0.27548 -0.21565 0.17517 -0.28771
110 -0.06674 -0.42149 1.03837 -0.53722 -0.05224 -0.65803 -0.41424 -0.18841 -0.23927 0.07155 0.63222 0.03993 0.69295 0.66747 0.03009 -0.59104 0.16427 -0.08606 -0.16865 0.62331
111 -0.18501 -0.48648 1.05997 -0.52017 -0.02903 -0.68601 -0.32984 -0.12230 -0.17419 0.02065 0.62861 -0.07106 0.73869 0.76522 -0.05731 -0.57792 0.24558 -0.17408 -0.18814 0.59753
112 0.27939 0.10644 0.28624 0.76133 0.34114 -0.24130 -0.52800 -0.75933 0.05457 -0.30175 -0.68789 0.44300 -0.74057 0.46142 -0.11438 -0.15597 0.96903 -0.32408 -0.18871 -0.46482
113 -0.62894 -0.54474 0.14024 0.25296 0.61022 -0.50470 0.11134 0.07514 -0.54090 0.12948 0.09640 -0.02131 0.53507 -0.08359 -0.23381 0.73034 -0.12833 0.89682 0.90268 0.53132
114 -0.70728 0.44228 -0.05098 -0.43983 -0.91675 0.16884 0.52794 0.00487 0.47033 -0.28434 0.69089 0.19750 -0.06292 -0.25187 1.14225 -0.05022 -0.44054 0.82113 0.49814 -0.13491
115 0.36340 0.23461 0.03427 -0.19157 0.71797 -0.83063 0.08485 0.23179 1.14332 -0.67419 -0.35860 -0.04795 0.92511 0.06319 -0.00215 -0.08155 0.43453 -0.09177 0.01857 0.35395
116 -0.05208 -0.49441 1.06080 -0.52101 -0.03036 -0.71544 -0.33198 -0.11961 -0.15703 0.15237 0.65556 0.02127 0.69554 0.75390 0.04202 -0.61840 0.17770 -0.06227 -0.19467 0.55788
117 -0.08503 -0.38550 0.94932 -0.56792 -0.16095 -0.52774 -0.46649 -0.11916 -0.25248 0.17069 0.72632 -0.02510 0.58016 0.80631 0.04913 -0.62863 0.19934 -0.05246 -0.13321 0.62248
118 -0.02718 -0.47227 0.90718 -0.58293 -0.17954 -0.48810 -0.48885 -0.12878 -0.26414 0.17255 0.78132 -0.01584 0.65843 0.87267 0.08389 -0.69446 0.26054 -0.05251 -0.21498 0.59531
119 -0.37379 0.24581 -0.25828 -0.24818 -0.66294 -0.71283 -0.18193 0.27843 0.60222 -0.42142 0.85275 0.34420 0.17103 -0.48163 1.15205 -0.20026 0.28607 0.45499 0.38293 0.00740
120 0.03127 -0.46747 1.04427 -0.55191 -0.13479 -0.66330 -0.28314 -0.14769 -0.11024 0.16684 0.53276 0.04635 0.69737 0.74206 0.06971 -0.73524 0.15879 -0.14461 -0.08866 0.71185
121 -0.36795 0.40239 -0.20279 -0.13342 -0.79430 -0.48234 -0.22741 0.33826 0.51267 -0.54429 0.90595 0.19443 0.11447 -0.30393 1.14336 -0.06705 0.28137 0.57191 0.19735 -0.08139
122 -0.54465 0.57536 0.42216 -0.66403 -0.99179 0.53754 0.36133 -0.08383 0.58152 -0.43691 0.20211 0.21506 0.26597 -0.24645 1.07314 -0.12041 -0.29943 0.62693 0.34564 -0.17278
123 -0.44364 -0.32569 -0.35411 -0.24651 0.19124 0.28861 0.24748 0.18978 -0.78364 -0.21130 -0.04009 0.52790 0.73111 0.02569 0.50832 -0.52332 0.06811 -0.52570 0.52255 0.04817
124 0.38523 -0.20041 0.36722 -0.18275 -0.50532 -0.15777 -0.74112 -0.29092 -0.25869 -0.00197 -0.03349 0.78101 0.24571 -0.08399 -0.05339 0.25353 -0.85843 -0.30862 -0.36024 0.54306
125 -0.15279 -0.83247 -0.38654 -0.14344 0.09596 0.05422 0.05534 -1.02309 0.07622 -0.50345 -0.20452 0.06438 -0.12348 0.14169 0.41732 0.51610 0.28833 0.05799 -0.72385 1.16916
126 -0.24394 0.69657 0.16967 0.43748 0.09947 0.40482 -0.26033 0.96700 -0.87202 0.08073 -0.17870 -0.22771 -0.51205 0.43912 -0.12529 0.05886 -1.29183 0.18883 -0.36276 0.24005
127 -0.04519 -0.80991 -0.34159 -0.34756 0.22009 -0.01890 -0.08017 -0.97225 0.12223 -0.61528 -0.25743 0.06555 -0.14860 0.04325 0.40188 0.61012 0.35261 0.08040 -0.74837 1.04081
128 0.04105 0.28684 -0.35297 -0.11074 0.13479 0.50864 -0.39400 -0.50191 -0.21291 0.27439 0.72346 0.58728 -0.19511 -0.20353 -0.28205 -0.14617 0.08467 -0.69125 -0.68352 -0.62877
129 0.19955 0.53509 0.62513 -0.71707 -0.02189 0.28892 0.38425 0.31547 -0.10557 0.33585 0.59000 -0.80947 -0.49788 0.01887 -0.99610 0.58559 -0.09229 0.53449 0.25840 0.24464
130 1.04458 -0.44839 -0.10887 0.15963 -0.17874 -0.72910 -0.06143 -0.35790 0.04936 0.08453 0.81895 0.38076 0.38840 -0.32950 0.27721 -0.69744 -0.94323 0.19784 -0.41293 0.25898
131 0.41199 0.79966 -0.28105 0.06936 0.01117 0.22688 0.22341 0.13214 -0.79652 0.26613 0.37089 -0.71997 0.28338 -0.62527 0.21404 0.39131 -0.10695 -0.73952 0.17735 -0.15729
132 0.72922 -0.31352 0.28027 0.57506 0.60594 -0.05390 0.93445 -0.22065 -0.53402 -0.19448 -0.32715 0.19421 -0.41484 0.55444 0.79891 0.41141 -0.12572 -0.30240 0.62676 0.16788
133 -0.46782 -0.28629 -0.07704 0.57999 -0.14125 -0.73623 -0.63142 0.41522 -0.40683 0.16292 -0.40487 0.35835 -0.44313 0.05397 0.57497 -0.87619 -0.03968 -0.09646 -0.08766 0.02071
134 -0.20090 1.34530 -0.01013 -0.03325 0.17795 0.34831 -0.90633 0.34659 -0.58246 0.32067 -0.34962 0.29085 -0.68578 0.33850 0.04997 0.02138 -0.70391 0.12489 0.05989 0.01759
135 0.81664 -0.25941 0.20062 0.46726 0.61731 -0.10784 0.90824 -0.23425 -0.46994 -0.18953 -0.38256 0.18166 -0.54306 0.50576 0.79962 0.33265 -0.11892 -0.27753 0.60951 0.18087
136 0.04738 -0.64228 -0.61098 -0.33422 -0.12606 -0.01522 -0.14041 -0.91958 0.02812 -0.62067 -0.26299 0.19995 0.13906 0.17228 0.47555 0.40767 0.36058 -0.15035 -0.85642 1.11331
137 0.06053 0.28248 -0.55936 -0.28024 0.06237 -0.08648 0.27692 0.01290 -0.07254 -0.85632 -0.30077 0.35958 0.52872 -0.07491 0.34728 -0.06617 0.12682 -1.16424 -0.12879 -0.02562
138 0.12783 -0.66420 0.69091 -0.51545 0.90588 0.13121 -0.10623 0.30927 -0.04079 -0.01758 0.44681 0.13311 0.10297 0.00422 -0.20387 0.23112 0.68617 -0.70243 0.16024 -0.25386
139 0.92318 0.00921 -0.25743 1.13419 0.14824 0.12035 0.40363 -0.00951 0.51020 0.32851 0.11420 -0.08730 0.04383 0.84505 -0.26388 -0.23616 0.30601 0.77354 0.53821 -0.27025
140 0.27618 -0.49386 0.14648 -0.02933 -0.71105 0.38365 -0.61797 0.33081 -0.70738 -0.44045 -0.81738 -0.14785 0.07727 -0.12424 -0.21816 0.24357 -0.72366 0.15111 -0.16969 -0.28785
141 -0.30009 0.09857 0.64652 -0.09598 0.34136 -0.81317 -0.74913 -0.02001 -0.67141 0.08342 -0.40504 -0.01317 0.35790 0.21705 -0.39537 -0.20504 0.06676 -0.34090 -0.48009 -0.26921
142 -0.25745 0.93120 0.32971 0.15073 0.37926 0.39479 -0.59847 0.70670 -0.88916 0.11108 -0.24743 -0.15404 -0.60720 0.49840 0.10183 -0.01149 -1.09962 0.24716 -0.14091 0.08955
143 -0.22480 0.33650 0.06447 0.62407 0.15405 0.12122 -0.15757 0.36407 0.48469 0.22134 -0.77758 -0.28372 -0.66747 0.33308 0.87864 -0.09971 -0.50645 -0.18321 -0.30101 -1.14357
144 -0.11565 0.27372 0.03521 0.57241 -0.04540 0.15893 -0.12129 0.23936 0.37337 0.34871 -0.81332 -0.46954 -0.71979 0.31792 0.73824 -0.02162 -0.37359 -0.19629 -0.19290 -1.34974
145 -0.31261 1.21172 0.12332 0.08129 0.32220 0.33610 -0.77189 0.47457 -0.73556 0.29225 -0.38909 0.05902 -0.65419 0.40433 0.16763 0.05070 -0.95322 0.19069 -0.02643 -0.03731
146 -0.55826 0.03482 -0.42231 -0.26774 0.29092 0.12331 0.42686 0.44541 -0.42203 0.19365 -0.12454 -0.22348 0.66979 -0.22617 0.18254 -0.80597 -0.04838 0.78704 -0.95623 -0.82834
147 -0.14453 -0.10815 0.00866 0.38284 -0.10990 -0.16389 -0.32661 0.31718 -0.71076 -0.99890 -0.30554 -0.75170 0.05993 0.16696 0.05366 -0.04072 0.70536 -0.14727 0.42625 0.30539
148 -0.28167 -0.16620 0.15733 0.32753 0.49230 0.04259 0.89662 0.14617 -0.20661 0.40788 -0.58262 0.42297 0.45226 -0.69795 -0.83882 -0.24050 0.42379 0.94546 -0.07954 0.03791
149 -0.26741 0.27571 0.58483 -0.07064 -0.22281 -0.07406 0.63170 -0.77073 -0.12780 0.49133 0.22037 -0.40501 0.18579 0.19763 -0.93716 0.44821 0.00098 -0.17629 0.17915 0.48881
150 0.71429 0.26532 0.14503 0.62887 -0.34640 -0.30002 -0.56886 0.25319 0.25289 0.64975 -0.54066 0.02988 0.08625 0.01743 -0.01056 0.92963 0.87326 -0.06564 0.34267 -0.72121
151 0.70835 0.22332 0.15360 0.62810 -0.35844 -0.32532 -0.56092 0.25531 0.19386 0.61317 -0.54788 0.05792 0.13911 0.00039 -0.01703 0.90978 0.87310 -0.09274 0.30949 -0.72607
152 -0.19707 -0.46881 1.07637 -0.55409 -0.16281 -0.72571 -0.45170 -0.13356 -0.20214 0.16495 0.56253 -0.03114 0.71390 0.57253 0.07316 -0.68764 0.22102 -0.18115 -0.18395 0.59015
153 -0.09442 -0.74026 -0.02068 -0.40397 0.21255 0.21663 -0.28195 -0.71000 -1.02820 -0.05910 0.44551 -0.22877 -0.34454 0.07540 -0.73746 -0.25027 -0.81059 0.05357 0.62808 -0.24416
154 -0.08470 0.25280 0.03917 0.42125 0.04994 0.15939 -0.18921 0.35585 0.40140 0.27568 -0.79070 -0.37807 -0.60338 0.26990 0.84816 -0.10946 -0.45387 -0.19225 -0.22478 -1.31533
155 -0.84259 0.78167 -0.21517 -0.37551 0.47472 0.77292 -0.12960 0.46787 -0.56406 -0.65275 -0.40472 0.03397 -0.08485 -0.42375 -0.25640 0.36081 0.33878 -0.01784 -0.75510 -0.04808
156 0.75942 -0.19331 0.48804 0.31552 0.47378 -0.12582 0.48465 0.58330 -0.14149 -0.48746 0.28913 0.20290 0.28979 0.37613 0.44828 -1.03446 0.48290 -0.48227 0.67994 0.02014
157 0.29823 -0.37191 0.06714 -0.11996 -0.19992 -0.63335 -0.00351 0.49515 -0.61561 0.49333 0.52198 0.32146 0.34420 -0.49589 0.15912 0.24261 -0.25310 0.71063 -0.35459 -0.48424
158 0.42471 0.47781 -0.45806 0.79516 -0.41240 -0.32463 -0.31699 -0.59753 -0.11848 0.04207 0.55898 0.74414 -0.24375 0.42962 -1.02311 0.05708 -0.46776 -0.06131 0.64851 -0.32590
159 0.28712 -0.61967 -0.01390 0.03879 0.48289 0.13596 -0.61430 0.54480 -0.46863 0.79436 -0.39047 -1.01493 -0.34390 -0.77282 -0.03100 -0.16973 0.37728 -0.35528 -0.40064 -0.48856
160 -0.52521 0.35667 0.39304 0.33983 0.20040 0.71047 -0.62706 -1.04326 -0.23238 0.49019 0.17331 -0.50509 0.19438 0.00311 0.11547 0.81139 0.73008 0.48948 -0.24362 0.08165
161 0.45229 0.93266 0.43569 0.43127 0.98601 0.43340 -0.34080 -0.14464 0.30193 -0.49112 0.04671 -0.27301 -0.68772 0.21189 -0.23635 0.19317 -0.26361 -0.59543 0.59182 0.16684
162 -0.13982 0.06065 0.27969 0.45285 -0.00541 -0.70452 -0.62792 -0.38752 -0.33035 0.57472 0.66070 -0.27242 0.05207 0.05493 -0.33217 0.00016 -0.62832 0.32594 0.25465 -0.62516
163 0.75497 -0.00493 0.31522 -0.42218 0.75103 0.25163 -0.73821 0.21424 -0.40752 0.50830 -0.52568 0.69063 -0.04250 0.26286 0.32433 -0.80471 -0.32732 -0.44834 0.40202 0.27693
164 -0.26507 1.26086 0.03721 -0.02084 0.26693 0.25519 -0.75125 0.31441 -0.62488 0.32864 -0.39064 0.23472 -0.65341 0.29684 0.16524 -0.01264 -0.77194 0.14835 0.05825 -0.10826
165 -0.43096 0.42262 -0.13685 0.19062 -0.03443 -0.04515 -0.82891 0.50890 0.39685 0.66201 0.26128 -0.29171 -0.03218 -0.74917 -0.31348 0.40323 0.60289 0.05949 0.05247 -0.23632
166 -0.34010 -0.13795 -0.34625 0.11124 0.28589 0.34297 0.12958 -0.83563 -0.35241 0.09012 0.73312 -0.23357 0.03588 -0.72232 -0.00151 -0.18251 -0.19549 -0.09075 -0.56579 -0.93703
167 -0.79516 -0.15373 -0.47533 -1.11988 0.76470 0.28451 0.43139 0.54711 0.06783 0.18884 0.23694 -0.55737 -0.18898 -0.44259 0.20030 0.32807 -0.09319 -0.49389 0.32041 0.49200
168 0.75618 0.00271 0.31903 -0.42777 0.75622 0.24242 -0.75687 0.22341 -0.40349 0.52097 -0.53158 0.69090 -0.05902 0.27442 0.32203 -0.79885 -0.33657 -0.45486 0.41119 0.27654
169 0.00607 0.72473 0.14334 -0.20056 -0.70494 -0.15543 -0.11539 -0.03783 0.11902 0.15510 0.46936 0.94778 0.47627 0.76564 -0.76358 0.52497 0.15739 -0.37307 0.23593 -0.60023
170 -0.07996 -0.71928 -0.32643 -0.17402 -0.05465 0.07587 -0.19054 -0.76485 -0.01064 -0.72898 -0.00504 -0.01084 -0.17738 0.18956 0.31031 0.68271 0.32928 -0.06036 -1.03111 1.22050
171 0.01496 0.72097 0.13505 -0.18943 -0.70299 -0.15006 -0.12384 -0.04656 0.12832 0.15150 0.46179 0.98050 0.47454 0.78091 -0.76876 0.51869 0.16218 -0.37916 0.22304 -0.60572
172 -0.16805 -0.59367 -0.33755 1.04272 0.56931 0.15028 0.39548 -0.03867 0.74739 -0.09292 0.10969 -0.17484 0.06990 0.25122 -0.37246 0.18427 0.38947 0.10777 -0.18703 -0.62281
173 -0.28230 -0.12975 0.15524 0.35946 0.52375 0.08118 0.90047 0.16279 -0.13079 0.37240 -0.54511 0.48203 0.44687 -0.72977 -0.86625 -0.25741 0.36655 0.96783 -0.08882 0.06276
174 -0.55123 -0.91547 -0.12474 -0.10965 0.01777 -0.29116 -0.44399 -0.38739 0.32770 -0.57314 -0.12095 -0.03324 -0.11930 -0.45812 0.62254 0.71979 -0.15065 -0.19709 -0.83736 0.71538
175 0.08831 0.42040 -0.31727 -0.13490 0.63156 0.53485 0.51928 0.82274 0.64187 0.31025 0.04370 -0.22997 0.30603 0.55774 0.34141 -0.28242 0.33380 -0.36712 0.04732 -0.16604
176 0.40082 0.45824 -0.42622 0.75695 -0.39361 -0.30242 -0.30396 -0.55668 -0.13054 0.02577 0.51667 0.68945 -0.23224 0.40560 -0.95362 0.06120 -0.44969 -0.06124 0.60866 -0.30153
177 -0.53338 0.27221 -0.00299 0.29607 -0.48030 -0.20426 0.09180 -1.35493 0.21949 -0.51919 -0.36668 -0.38421 0.08100 0.27384 0.22347 -0.76366 -0.07822 -0.71474 -0.12737 0.27930
178 -0.57425 0.29452 0.01419 0.32130 -0.47625 -0.20315 0.07596 -1.34299 0.18882 -0.49765 -0.36556 -0.40947 0.08327 0.27276 0.20770 -0.72621 -0.02409 -0.74032 -0.11360 0.29301
179 -0.49188 0.35664 0.34513 0.32766 0.19670 0.64930 -0.57005 -1.02080 -0.25709 0.48418 0.13627 -0.51876 0.17146 -0.00848 0.12266 0.77354 0.71481 0.48056 -0.25716 0.06208
180 -0.44019 0.13078 0.15644 0.84973 -0.51906 0.17976 0.05878 -0.00985 0.22462 0.47212 0.43435 -0.61048 0.90186 0.12552 -0.41781 0.17698 0.89840 -0.26936 0.53476 -0.67671
181 -0.70710 -0.12915 -0.46081 -1.12898 0.74823 0.18813 0.52040 0.47955 -0.00990 0.20555 0.09014 -0.51388 -0.09905 -0.44586 0.08324 0.43123 -0.12445 -0.66303 0.21892 0.46186
182 0.21114 0.03543 0.04904 0.41556 0.11400 0.53647 0.44437 0.30566 0.31452 -0.20240 0.54452 -0.05660 -0.70304 -0.68081 0.08332 -0.84892 -0.69372 -0.15906 -0.09786 0.44023
183 -0.37671 0.06700 0.34642 0.81548 -0.47614 0.05107 0.10156 -0.02316 0.17688 0.32457 0.61077 -0.58465 0.87146 0.15957 -0.41143 0.24723 0.85400 -0.25544 0.43013 -0.86255
184 -0.80989 -0.17479 -0.48649 -1.12883 0.79392 0.29282 0.36085 0.48056 0.02216 0.16126 0.16038 -0.52154 -0.16528 -0.46907 0.19919 0.36595 -0.13970 -0.51989 0.25347 0.52550
185 -0.51424 0.75943 -0.86271 0.31705 0.24739 0.16643 0.39120 0.37753 -0.97458 0.21305 0.09842 -0.36938 -0.39378 0.22323 -0.36915 -0.83078 -0.21097 -0.15499 0.27679 0.50216
186 0.19892 0.06905 0.78183 -0.70107 -0.78446 -0.52253 0.00086 -0.30214 0.60175 0.71299 -0.29480 -0.34642 -0.38528 0.18871 -0.77698 -0.03652 -0.17508 -0.08196 -0.04308 -0.74104
187 -0.60516 0.08349 -0.21431 -0.20553 -0.70614 -0.62720 0.04161 0.35990 0.54478 -0.52071 1.00308 0.30504 0.35683 -0.23633 1.05784 -0.03435 0.15358 0.44169 0.35598 -0.00590
188 0.02323 -0.03695 -0.11433 -0.28299 0.39931 0.82774 -0.58455 -0.38978 0.10511 -0.27436 -0.71214 -0.40070 0.79847 0.27339 0.76906 0.93389 -0.25118 -0.27388 0.17972 -0.27578
189 -0.33430 1.34425 -0.01897 0.02462 0.24347 0.25099 -0.81562 0.26938 -0.56398 0.38237 -0.43150 0.23805 -0.61804 0.32741 0.15879 -0.11687 -0.79980 0.12551 0.15952 -0.03108
190 -0.18363 0.69705 0.00387 0.02596 -0.21456 -0.09166 0.18122 0.04775 0.31635 -0.13136 -0.24492 -0.00635 0.41701 0.07379 -0.14175 0.08549 0.78634 0.19471 -0.48027 -1.17676
191 0.09125 1.01899 -0.01652 0.56005 0.21467 0.37697 -0.01493 0.22137 -0.04845 -0.05381 -0.41101 -0.06944 -0.12747 -0.42832 0.92126 0.62067 -0.24431 0.32162 0.20771 0.07072
192 -0.17054 -0.01986 0.24876 0.07879 -0.42196 -0.29004 -0.03144 0.69682 -0.40389 0.16646 -0.33549 0.79537 -0.66879 0.40738 -0.59525 -0.31269 -0.03121 -0.63481 -0.76425 -0.83236
193 0.06388 -0.11586 -0.01976 0.49665 -0.48803 -0.47140 0.46898 0.17629 0.37030 0.57797 -0.41215 -0.28533 -0.23727 0.08883 0.65072 -0.44847 -0.60201 -0.74004 -0.72208 0.87409
194 -0.08318 -0.43905 1.01749 -0.55775 -0.13254 -0.67897 -0.32283 -0.15337 -0.22700 0.09893 0.63614 -0.02982 0.66761 0.65747 -0.00085 -0.60993 0.24255 -0.10746 -0.13940 0.59631
195 -0.19579 0.14057 -0.18840 -0.53867 -0.51698 -0.87645 -0.18095 0.20285 0.76289 -0.23202 0.56380 0.70627 -0.12186 -0.49257 0.90292 -0.27816 0.49451 0.48335 0.41694 0.01349
196 -0.49651 0.21787 -0.21925 -0.28999 -0.70067 -0.58115 -0.00402 0.34792 0.47013 -0.57995 0.95677 0.12176 0.32302 -0.31975 1.02062 -0.14454 0.15856 0.48865 0.29213 -0.06098
197 0.30399 0.37981 -0.00799 -0.36042 0.69493 -0.78607 0.03446 0.27111 1.14917 -0.53974 -0.43083 -0.08796 0.93780 0.09649 -0.05989 -0.13872 0.39410 -0.04340 -0.10288 0.53750
198 -0.62933 -0.54398 0.15351 0.24911 0.61722 -0.50894 0.11837 0.06580 -0.55441 0.14555 0.09874 -0.00997 0.53447 -0.07245 -0.24670 0.73342 -0.12605 0.91444 0.93033 0.52914
199 -0.19243 -0.65016 -1.22521 0.40416 0.45589 -0.36751 -0.08768 -0.05827 0.10292 -0.07329 0.31393 0.35214 -0.30815 0.74571 -0.43981 -0.34018 -0.23607 -0.08320 0.76458 -0.39693
200 -0.17523 -0.63669 -1.23192 0.40699 0.39892 -0.36214 -0.10807 -0.06812 0.06925 -0.06918 0.33760 0.33383 -0.26653 0.76110 -0.42408 -0.34397 -0.22352 -0.11735 0.79138 -0.43063
201 -0.20492 -0.65973 -1.23673 0.42082 0.44014 -0.34161 -0.05968 -0.07798 0.04672 -0.07571 0.37013 0.34507 -0.30255 0.71680 -0.41116 -0.35812 -0.21109 -0.09788 0.80603 -0.42836
202 -0.22811 0.02450 0.16357 0.04703 -0.42664 -0.26157 0.07919 0.67218 -0.45253 0.20214 -0.37977 0.71724 -0.72328 0.41844 -0.60019 -0.31270 0.02348 -0.55433 -0.67753 -0.86893
203 0.28850 -0.44734 -0.24401 0.12763 -0.04236 0.84505 -0.41491 0.31679 0.29100 -0.48098 -0.44803 0.32665 0.19881 -1.08777 -0.32822 -0.80382 0.00242 0.03167 0.44403 -0.62578
204 0.29718 -0.46856 -0.19665 0.11021 -0.04448 0.83113 -0.39916 0.32694 0.30080 -0.47478 -0.46294 0.35319 0.25958 -1.10547 -0.33177 -0.80843 0.01429 0.01661 0.43225 -0.62942
205 0.16297 0.41711 -0.24470 0.14227 0.55919 0.18347 -0.39954 0.39292 -0.22132 -0.18641 -0.32466 0.40301 0.40505 -0.40868 0.53689 -0.51507 0.42804 0.83337 0.16753 0.58971
206 0.78619 -0.79690 0.22583 0.14267 -0.18773 0.16351 0.68238 0.41538 0.32253 -0.26823 -0.02945 0.44996 0.19531 -0.04776 0.55340 -0.97291 0.70411 -0.30734 0.50874 -0.31025
207 -0.43888 0.27139 -0.29474 -0.20358 -0.71641 -0.55518 -0.09699 0.26645 0.46195 -0.51130 0.94601 0.12883 0.27739 -0.28132 1.07296 -0.11863 0.16847 0.48957 0.31185 -0.02971
208 -0.46706 0.23163 -0.29702 -0.19921 -0.75409 -0.57272 -0.07194 0.24426 0.52803 -0.53344 0.94427 0.14763 0.22515 -0.27549 1.05624 -0.08636 0.11865 0.43982 0.34612 -0.08354
209 -0.08225 -0.33942 -0.26806 -0.51109 0.38600 0.09806 -0.51909 -0.16891 -0.16272 -0.66921 0.14095 -0.21192 0.71285 -0.73096 0.10544 0.71202 -0.16234 0.31837 0.10559 -0.27318
210 0.72188 -0.48527 -0.08378 -0.50427 0.17303 -0.39918 -0.31930 -0.18025 0.10703 0.63556 1.17082 0.32523 -0.22408 -0.53145 -0.64626 0.22839 -0.38616 0.10626 -0.59165 0.27531
211 0.72541 -0.50996 -0.04381 -0.50011 0.19487 -0.38395 -0.35266 -0.21093 0.13480 0.60120 1.16439 0.33046 -0.27579 -0.52525 -0.62853 0.28177 -0.33994 0.10524 -0.56252 0.22295
212 0.21626 0.04153 -0.07832 -0.06018 -0.19296 -0.79080 -0.77152 -0.04530 -0.60365 0.52667 0.25506 -0.86534 -0.36302 0.14251 0.85186 0.25390 0.32419 -0.26805 0.77164 -0.27682
213 -0.37834 0.35458 -0.23500 -0.04348 -0.78634 -0.50196 -0.26518 0.34900 0.60006 -0.47937 0.87392 0.23524 0.06808 -0.37506 1.15733 -0.02857 0.37767 0.51201 0.13669 -0.10625
214 -0.56951 0.28105 -0.02453 0.33700 -0.42613 -0.22448 0.10145 -1.38402 0.21716 -0.45651 -0.39878 -0.43542 0.12687 0.22745 0.23181 -0.76531 -0.05981 -0.72166 -0.10480 0.23084
215 -0.53529 -0.89381 -0.22491 -0.05086 -0.06059 -0.06381 -0.59920 -0.52738 0.28163 -0.70794 -0.17900 0.14532 -0.06230 -0.22238 0.56872 0.78899 -0.05409 -0.05081 -0.94880 0.85842
216 0.33026 -0.46950 -0.20028 0.07346 -0.01000 0.83616 -0.37055 0.31208 0.31148 -0.46557 -0.44733 0.37407 0.27796 -1.10966 -0.32965 -0.81947 0.02127 0.04203 0.36261 -0.66621
217 0.17717 0.01426 -0.09798 -0.06947 -0.20894 -0.77343 -0.75985 -0.05077 -0.59541 0.53876 0.26271 -0.84314 -0.36151 0.15518 0.84278 0.26087 0.34453 -0.27367 0.77243 -0.28409
218 -0.13823 -0.52135 1.07293 -0.58709 -0.18645 -0.68711 -0.45063 -0.10235 -0.14934 0.28374 0.53206 -0.03239 0.74493 0.57417 0.07506 -0.63694 0.15763 -0.06132 -0.22166 0.55535
219 -0.49721 -0.18952 0.13623 -0.46379 0.74056 -0.30013 -0.27721 -0.74505 0.23478 0.29642 -0.50194 0.23622 0.76236 -0.12847 -0.27944 -0.10066 -0.10807 0.40575 -0.47138 -0.17097
220 0.05575 -0.00413 0.05026 -0.38003 -0.34462 0.12982 0.62158 0.74669 0.31496 0.36139 -0.52499 -0.30039 0.37491 0.35253 -0.49116 -0.40433 -0.55469 0.28731 0.61095 -0.15685
221 -0.05880 -0.15638 0.55763 -0.61285 0.59116 -0.52915 -0.15754 -0.61194 -0.75839 0.76151 -0.14860 0.10974 -0.82523 0.56012 0.09273 -0.16860 -0.30709 0.49036 0.16595 -0.48741
222 -0.01682 -0.07694 -0.06271 -0.09527 0.49904 0.65827 -0.63584 -0.48059 0.07037 -0.17107 -0.69076 -0.61183 0.82954 0.10864 0.70223 0.85172 -0.39831 -0.08215 -0.01539 -0.36596
223 0.28858 -0.37256 0.27820 0.44270 0.17235 0.68513 -0.36754 0.37160 0.55600 -0.43596 -0.08182 -0.16561 -0.28502 0.64595 -0.18357 -0.42366 0.54188 -0.76901 0.06516 -0.22900
224 -0.90167 0.77279 -0.27552 -0.32989 0.45210 0.78137 -0.25413 0.49001 -0.54090 -0.63419 -0.27940 -0.00204 -0.13161 -0.48540 -0.22836 0.28788 0.35303 -0.00013 -0.80493 -0.03677
225 -0.11806 -0.27691 -0.59308 -0.46799 -0.01619 0.13157 0.21258 -1.24705 -0.07715 -0.65890 -0.02481 0.39535 0.01734 0.33796 -0.04566 0.58502 0.06831 0.66641 -0.92728 0.66124
226 -0.10278 -0.28209 -0.00851 0.07279 0.61362 -0.09588 -0.62592 0.87583 0.72986 0.00538 0.10005 -0.25290 0.23933 -0.08055 -0.87514 -0.60194 -0.53506 -0.45073 -0.40397 0.75638
227 -0.04190 -0.27140 -0.00060 0.05215 0.61192 -0.09464 -0.58763 0.86477 0.73779 0.01275 0.09902 -0.21725 0.27415 -0.10709 -0.87794 -0.58918 -0.52540 -0.46670 -0.41156 0.76915
228 -0.17683 -0.76247 -0.45747 -0.27125 -0.14295 0.02773 -0.19353 -0.93250 0.08424 -0.64863 -0.31630 0.12273 0.14571 -0.00836 0.49988 0.58745 0.31252 -0.07010 -0.87039 1.12138
229 -0.28444 -0.00131 0.46638 0.74689 -0.50176 0.16682 0.17765 0.02314 0.11778 0.26587 0.57471 -0.62820 0.73122 0.30205 -0.28865 0.25633 0.73213 -0.33585 0.57641 -0.89956
230 -0.31615 -0.04696 0.46635 0.74527 -0.49641 0.19801 0.18173 -0.00517 0.15387 0.26433 0.59561 -0.64799 0.78065 0.30206 -0.26441 0.26491 0.71836 -0.30327 0.55280 -0.89906
231 -0.76608 -0.10169 -0.45046 -1.07622 0.69383 0.26176 0.37837 0.48125 0.02730 0.21804 0.09096 -0.60353 -0.11727 -0.39204 0.11386 0.45601 -0.11903 -0.56547 0.31142 0.48419
232 -0.80196 -0.20021 -0.47873 -1.08597 0.77321 0.27398 0.43959 0.55984 0.06076 0.23588 0.24484 -0.53507 -0.11368 -0.45082 0.16607 0.32896 -0.11789 -0.48361 0.28946 0.50707
233 -0.50142 0.74134 -0.84797 0.30463 0.22023 0.17471 0.40108 0.36845 -0.96835 0.20513 0.08172 -0.36011 -0.37999 0.21401 -0.33995 -0.82701 -0.18047 -0.14391 0.26857 0.49083
234 0.04761 0.15369 0.04624 0.06303 0.14278 0.05969 0.05767 -0.02868 0.14342 0.08471 0.00634 0.05985 0.04629 -0.11011 -0.06998 0.04605 0.08970 -0.08061 -0.12294 0.04627
235 -0.02561 -0.10550 -0.14160 0.04368 0.04198 0.10202 0.02840 0.07454 0.03650 0.04018 0.06549 -0.03119 -0.10532 -0.05216 0.00995 0.04258 -0.02209 0.05305 0.00125 0.02401
236 0.08872 0.03869 -0.03709 0.07117 -0.12710 -0.04975 0.09242 -0.14488 -0.13855 0.03821 0.11192 -0.03274 0.06017 -0.10648 -0.07652 -0.11189 -0.00717 -0.05827 -0.03461 0.04720
237 -0.58548 0.43694 -0.12642 -0.32372 -0.89014 -0.32560 0.06206 0.12972 0.53839 -0.48646 0.86541 0.20737 0.13444 -0.30004 1.18949 -0.06574 -0.05231 0.67864 0.49461 -0.05809
238 0.01628 0.04199 0.95694 0.74485 -0.10749 0.27682 0.35894 0.42299 -0.74393 0.46636 -0.34779 0.48848 -0.33246 -0.65300 -0.55746 0.57507 0.01014 0.46651 0.59661 -0.16621
239 0.96230 -0.40775 0.42500 0.19886 0.37342 0.06422 0.51712 0.40031 -0.04069 -0.37138 0.14595 0.26366 0.22528 0.18824 0.60445 -1.20803 0.65621 -0.40847 0.61851 -0.29721
240 -0.21753 -0.11810 0.30250 0.08216 -0.38587 -0.31204 0.00343 0.69997 -0.42942 0.15125 -0.39204 0.80543 -0.64459 0.48165 -0.50849 -0.38896 0.12913 -0.46943 -0.78925 -0.87807
241 -0.75628 -0.20363 -0.56267 -1.15586 0.72322 0.27441 0.40973 0.52771 -0.03817 0.13177 0.34111 -0.57563 -0.17122 -0.35496 0.21547 0.29062 -0.16042 -0.44515 0.32153 0.40924
242 -0.03910 -0.58051 -0.19373 -0.24048 -0.10125 0.08783 -0.21187 -0.71523 -0.02066 -0.62470 -0.04209 0.07118 -0.32508 0.32078 0.21652 0.62167 0.42883 0.02821 -1.03048 1.20797
243 -0.14646 0.40845 0.01628 0.12945 -0.18301 0.48819 -0.14525 0.13317 0.07548 0.85891 0.16098 0.55659 0.91317 0.32671 0.34272 0.74324 -0.12878 -0.24956 -0.21443 0.27951
244 0.98359 0.03129 0.07972 0.30595 -0.43438 -0.10728 0.66639 0.08545 -0.00625 -0.68577 -0.84898 -0.09047 -0.37433 -0.47012 -0.35428 0.69700 0.18857 0.00915 -0.80521 0.38898
245 0.42386 0.90058 0.44038 -0.06887 -0.71818 -0.20249 -0.24833 0.62177 0.82958 0.35672 0.55061 -0.13373 -0.39901 -0.10198 -0.01692 0.18147 -0.12255 -0.38954 -0.66982 0.51673
246 -0.22373 -0.08870 0.27910 0.09070 -0.41376 -0.29466 0.04124 0.64919 -0.36274 0.17901 -0.34773 0.80048 -0.63875 0.44061 -0.55820 -0.31623 0.03322 -0.56363 -0.69880 -0.83513
247 -0.33239 -0.04373 0.47107 0.70738 -0.46413 0.22060 0.17700 0.02275 0.14103 0.27667 0.57546 -0.60297 0.80115 0.27710 -0.25481 0.26707 0.74514 -0.33842 0.55668 -0.88749
248 -0.54828 -0.82536 -0.16208 -0.06849 0.14487 -0.23638 -0.53797 -0.36275 0.30887 -0.50628 -0.15334 -0.05799 -0.14813 -0.49002 0.64182 0.83066 -0.11471 -0.16528 -0.76856 0.73634
249 -0.51658 0.47171 0.44018 -0.51137 -0.71940 0.75738 0.30166 -0.26721 0.60044 -0.14335 0.52644 0.09486 0.10618 -0.35259 1.08860 -0.05823 -0.27194 0.69593 0.37746 -0.16981
250 -0.18062 -0.10187 0.25268 0.10110 -0.45787 -0.27734 -0.04893 0.69448 -0.48760 0.24496 -0.33982 0.73382 -0.61147 0.45497 -0.55552 -0.28975 0.07492 -0.61500 -0.70745 -0.88367
251 -0.01341 -0.44153 0.38072 -0.33170 -0.36811 0.00073 0.40794 0.33778 -0.16264 0.41154 -0.92579 -0.54591 0.54550 -0.11829 0.40758 -0.20670 -0.03118 0.86691 0.54121 0.86554
252 -0.00728 -0.45282 0.39480 -0.32717 -0.37146 -0.00539 0.41817 0.32899 -0.17805 0.41148 -0.93893 -0.55300 0.54731 -0.11421 0.41513 -0.20155 -0.02877 0.88248 0.53742 0.87458
253 -0.33454 -0.04970 0.37688 -0.53037 0.00102 0.13209 0.15033 -0.38566 0.36165 0.38670 0.14585 -0.79935 -0.54019 0.62572 0.39583 0.73072 0.28736 0.32453 -0.26733 -0.27507
254 -0.77179 -0.40619 -0.43168 -1.11968 0.83211 0.19973 0.20991 0.83898 0.16737 0.06235 0.47037 -0.46582 -0.22541 -0.63439 0.19817 -0.05913 0.21413 -0.24577 0.13033 0.42699
255 -0.53817 -0.01419 -0.58590 -1.21049 0.76379 0.14090 0.47505 0.36889 0.10683 0.22355 0.17533 -0.54169 -0.08161 -0.47727 0.14088 0.50403 -0.20757 -0.61635 0.27067 0.33764
256 0.46966 -0.25014 -0.27503 -0.15776 0.73876 -0.19852 -0.02852 -0.06046 -0.68788 0.75682 0.32424 -0.43333 -0.24042 0.24039 0.27461 0.35800 0.29788 -0.45579 -0.55831 -0.27018
257 -0.20693 -0.03112 0.31370 0.13822 -0.37990 -0.24202 -0.10346 0.70362 -0.31587 0.15490 -0.31807 0.83694 -0.70790 0.43160 -0.58943 -0.38972 0.01847 -0.48353 -0.81100 -0.87781
258 0.77917 0.81345 0.06506 -0.35704 0.61194 0.26612 -0.23863 -0.11552 0.03435 0.40194 0.42518 -0.11230 -0.29333 -0.59403 -0.41473 0.04342 -0.00567 -0.34456 0.57657 -0.15375
259 -0.77241 0.06746 0.53776 0.41810 0.04235 -0.29944 0.06728 -0.23140 0.81953 -0.01832 0.09032 -0.03669 -0.66577 -0.31464 -0.24331 0.32576 -0.39009 0.87759 -0.12804 0.17381
260 -0.08410 -0.77386 0.07156 -0.50810 0.21301 0.28335 -0.26705 -0.72325 -1.01284 -0.07356 0.34483 -0.28962 -0.38781 0.06162 -0.76579 -0.20280 -0.78975 0.07274 0.59163 -0.16523
261 -0.65085 0.79785 -0.16458 -0.31875 -0.19282 0.24068 -0.09416 -0.29318 -0.65649 0.12612 -0.75834 -0.11908 -0.56617 0.41901 -0.31945 0.12849 -0.51469 0.12446 -0.00983 0.13839
262 0.31023 -0.80882 0.11273 -0.52229 -0.52159 0.53748 -0.68103 -0.19518 0.16373 0.49088 -0.14469 -0.25323 0.05253 -0.10338 0.57959 0.09432 0.10424 -0.67618 0.13954 0.27866
263 0.99010 -0.02343 0.06884 0.28437 -0.38066 -0.11249 0.70571 0.08359 -0.04680 -0.70608 -0.82106 -0.07882 -0.39870 -0.46544 -0.40069 0.70598 0.11929 0.02374 -0.78070 0.35502
264 -0.40883 -0.02751 -0.37722 0.43948 0.19571 0.35341 0.01633 0.13060 -0.24571 -0.53303 0.69277 -0.13069 0.20757 -0.71095 -0.68585 0.41152 0.20685 -0.49219 0.23970 0.49292
265 -0.28496 -0.64763 -0.05189 0.11375 -0.26426 0.07069 -0.10695 0.52190 -0.79918 -0.24138 -0.33913 -0.66912 -0.23628 0.11327 -0.21406 -0.36740 0.87401 -0.37709 0.03368 0.43376
266 -0.15982 -0.22736 -0.37840 -0.26130 -0.15307 -0.06098 0.33093 -1.19910 -0.03206 -0.59692 -0.24706 0.26771 0.09890 0.35570 -0.21547 0.54612 -0.07460 0.84185 -0.81555 0.67227
267 0.63568 -0.06126 0.02713 0.04353 0.14090 0.72269 0.84899 0.02149 0.08785 -0.31114 0.33785 -0.26242 0.90943 -0.15163 -0.22804 0.61422 -0.10679 -0.08702 -0.62351 -0.23154
268 -0.54269 -0.85920 -0.15770 -0.09372 0.12274 -0.26895 -0.53120 -0.44887 0.25932 -0.50859 -0.08731 -0.00792 -0.23508 -0.50183 0.65006 0.84569 -0.07615 -0.16771 -0.82733 0.66292
269 -0.76177 0.52148 0.17937 -0.29992 -1.01399 0.34687 0.60788 -0.31834 0.37793 -0.07060 0.46516 0.03265 0.10243 -0.16895 0.88407 -0.22170 -0.50016 0.68713 0.65552 -0.20814
270 0.61604 0.42554 0.02536 -0.11004 -0.14944 0.76389 0.14778 -0.53052 0.47521 0.73707 -0.05589 0.50241 -0.06302 -0.27623 -0.15357 -0.95292 -0.70914 0.26635 0.20281 -0.69712
271 -0.03879 -0.15800 0.56880 -0.63480 0.60660 -0.55111 -0.12504 -0.62900 -0.77636 0.75638 -0.12291 0.11976 -0.84315 0.57496 0.13308 -0.18309 -0.30166 0.50673 0.18921 -0.48653
272 0.05293 0.50812 -0.70924 0.76013 0.44971 -0.73418 -0.39477 -0.34429 0.54208 0.14763 -0.13929 0.44287 -0.27701 0.32814 0.04854 0.34753 -0.42588 0.12994 -0.05259 -0.30146
273 -0.11786 0.52863 0.42527 0.07768 -0.42161 -0.69866 -0.30845 0.13675 0.32426 -0.50080 0.14399 -0.67115 -0.51603 -0.62594 0.22419 0.20905 0.06007 0.43701 -0.00131 -0.67513
274 -0.21985 -0.74798 0.06576 -0.39499 0.13920 0.16328 -0.26408 -0.64515 -0.99911 -0.11145 0.41748 -0.10766 -0.32045 0.07380 -0.72541 -0.16667 -1.04600 0.24116 0.55200 -0.29320
275 -0.11721 -0.15181 0.23638 0.23099 0.46465 0.13287 0.94644 0.27950 -0.32802 0.37763 -0.51883 0.51663 0.62730 -0.55568 -0.89292 -0.27850 0.43545 0.76887 -0.09382 0.04101
276 0.33361 -0.29024 0.84759 0.51013 0.12173 -0.50604 0.33487 0.21011 -0.13200 0.41261 -0.17306 0.13727 0.43444 -0.38926 -0.57852 -0.38945 0.72778 -0.05392 0.55601 -0.32567
277 -0.48958 0.08089 -0.32476 0.28867 0.31091 -0.24387 -0.53780 -0.27941 -0.05328 -0.12523 -0.65558 -0.54249 0.34701 0.18106 -0.57469 -0.19556 -0.60852 -0.83289 0.24206 0.13877
278 0.45456 0.98022 0.43722 0.43616 0.99670 0.42868 -0.36505 -0.15313 0.33069 -0.48919 0.06530 -0.28678 -0.68774 0.20305 -0.24901 0.19278 -0.29904 -0.59016 0.62174 0.14710
279 -0.04503 -0.08071 -0.58511 0.67582 0.02526 -0.02681 -0.08859 -0.62245 -0.88701 -0.09451 0.41069 0.10436 0.20575 0.50225 -0.13579 0.35908 -0.24221 -0.53431 -0.53613 -0.29206
280 0.09233 0.11393 -0.18533 0.77138 0.36940 0.19537 0.48109 -0.22901 0.37383 -0.38378 -0.49225 -0.41481 0.43485 0.61709 -0.30546 0.26208 0.60073 0.59216 -0.47400 0.14426
281 0.05491 -0.12665 0.64009 -0.21617 0.72607 0.85236 0.58276 0.04828 0.08529 -0.03032 0.71969 0.27922 -0.89491 -0.06966 -0.56433 -0.57369 -0.01870 -0.05608 -0.15811 0.65272
282 -0.20171 -0.69632 0.03993 -0.39087 0.12867 0.15188 -0.24178 -0.68000 -1.00487 -0.10036 0.44399 -0.12366 -0.32481 0.04474 -0.76878 -0.19723 -0.98369 0.19234 0.54487 -0.29684
283 0.43889 0.96577 0.47031 -0.06859 -0.73194 -0.18951 -0.28340 0.65291 0.88518 0.37538 0.58295 -0.14415 -0.43997 -0.12608 -0.02726 0.21682 -0.14873 -0.38746 -0.67671 0.52936
284 0.04632 -0.12965 0.64083 -0.21313 0.71980 0.84032 0.56265 0.05660 0.08321 -0.00741 0.71417 0.26461 -0.88646 -0.07275 -0.55677 -0.55994 -0.01991 -0.04752 -0.15884 0.63328
285 -0.81050 -0.40762 -0.07288 0.65165 0.33748 -0.06029 -0.15208 -0.43350 0.60326 -0.13908 -0.09242 -0.00106 -0.21805 -0.53619 -0.31888 0.35286 -0.10331 -0.69604 0.12287 -0.54119
286 0.17645 0.61780 0.59714 -0.62848 -0.06913 0.28732 0.33325 0.31230 -0.11720 0.29813 0.64109 -0.79805 -0.54859 -0.12582 -0.99138 0.51095 -0.06024 0.57366 0.24520 0.15301
287 0.11368 -0.39992 -0.69497 -0.01531 0.42988 -0.25205 -0.53149 0.23718 0.85645 0.38493 -0.85424 -0.76572 -0.32510 0.30449 -0.78669 0.24218 -0.18295 0.53912 -0.08357 -0.19516
288 -0.48384 0.02014 -0.41565 -0.29359 0.35065 0.15139 0.45237 0.43505 -0.42035 0.11920 -0.08636 -0.24475 0.62975 -0.22113 0.16112 -0.82024 -0.05998 0.70171 -0.91640 -0.78678
289 -0.15896 0.22571 -0.18626 -0.29332 -0.42147 -0.86391 -0.37534 0.10974 0.75389 -0.22819 0.86925 0.48121 -0.11502 -0.58150 1.04981 -0.26921 0.32981 0.41617 0.46974 0.03756
290 1.02339 -0.02659 -0.21514 -0.70649 0.65662 -0.27304 -0.01104 0.28874 -0.26655 0.13973 -0.55312 -0.66366 -0.40785 -0.34218 0.13329 -0.40741 0.28459 0.20977 -0.14887 -0.21161
291 0.01230 -0.10040 -0.08517 -0.07529 0.47955 0.62807 -0.62247 -0.52554 0.10077 -0.13831 -0.66606 -0.65755 0.86173 0.10142 0.69948 0.87517 -0.38199 -0.08234 -0.00629 -0.36899
292 -0.34043 0.71513 -0.34699 -0.79881 -0.24938 0.17565 -0.07785 0.32245 -0.01852 -0.07311 0.67547 -0.16497 0.01975 -0.40128 -0.83353 0.33557 0.41002 -0.14156 0.19215 -1.16656
293 0.35603 -0.12292 0.28873 0.08878 -0.09928 -0.07237 0.41943 0.97189 0.21871 0.05130 -0.19461 0.85345 0.03179 -0.72189 -0.43999 0.44801 -0.54314 0.09434 0.21085 0.19133
294 0.18304 0.13778 0.03862 0.14694 -0.00615 -0.07037 -0.00099 -0.13147 0.14234 0.14570 0.03623 0.08803 0.09091 -0.09270 0.04582 -0.05303 -0.00474 0.09567 -0.07468 0.05733
295 0.07189 -0.41371 -0.74696 -0.03370 0.44934 -0.24928 -0.48517 0.26844 0.83684 0.41588 -0.85670 -0.71063 -0.27795 0.24245 -0.77867 0.21386 -0.18255 0.52787 -0.10172 -0.18378
296 -0.53188 -0.04692 -0.00809 0.00066 0.00573 0.08169 -0.75643 -0.42312 0.05919 -0.33950 -0.13734 -0.78153 0.46592 0.31845 -0.51422 -0.66174 -0.13653 0.19584 0.54308 -0.46490
297 0.86639 -0.13962 0.29047 0.32676 0.56905 0.13492 0.63605 0.40770 -0.05595 -0.22937 0.14203 0.35531 0.16806 0.11496 0.65702 -1.16435 0.56710 -0.42196 0.63177 -0.22794
298 0.05915 -0.72608 -0.50965 -0.33840 -0.14212 -0.00062 -0.17357 -0.98880 -0.08729 -0.69130 -0.28143 0.13038 0.13748 0.13954 0.43033 0.40564 0.32003 -0.10777 -0.81647 1.04652
299 0.72991 0.26200 0.16090 0.64277 -0.30358 -0.28121 -0.63180 0.29323 0.20518 0.59516 -0.57391 0.06032 0.11745 0.04436 0.00431 0.88712 0.92156 -0.02465 0.32789 -0.72797
300 0.92675 0.22641 -0.07028 0.18350 -0.33707 -0.08514 0.83791 0.16361 -0.09127 -0.70648 -0.77618 -0.01028 -0.36124 -0.53517 -0.31038 0.70641 0.23349 0.03162 -0.77872 0.36834
301 0.07458 0.03667 -0.28520 0.53934 -0.56769 0.30522 0.33981 0.50482 0.28653 0.39361 -0.30661 -0.34614 -0.54459 -0.21052 0.06979 0.01748 -0.11195 0.99852 0.68507 0.34985
302 0.98133 0.10536 -0.00583 0.20908 -0.38636 -0.13931 0.73341 0.09201 -0.01900 -0.71012 -0.79393 -0.06497 -0.29164 -0.49161 -0.35328 0.73956 0.14452 -0.00831 -0.75669 0.34022
303 0.32088 0.12337 0.71489 -0.65003 -0.26665 0.35152 0.24422 0.07707 -0.14406 -0.39509 -0.64302 0.85832 0.02445 -0.12226 -0.34668 -0.18258 0.71259 -0.30529 0.38937 -0.09146
304 -0.37230 0.36777 -0.74414 -0.52843 -0.08918 -0.04997 0.11771 0.05097 0.54299 0.43792 -0.55287 -0.12464 0.54773 0.05528 0.13686 -0.24963 -0.63235 -0.74438 -0.09849 0.07801
305 -0.25464 -0.48725 0.72792 0.12136 -0.23622 -0.59255 -0.08306 0.03901 0.14074 -0.98073 0.12700 0.47450 -0.19117 0.48377 -0.51235 -0.00681 0.12354 -0.38777 -0.03647 0.32419
306 0.88646 0.44461 -0.42321 0.11313 -0.34670 0.75154 -0.01673 0.52267 -0.44615 -0.60091 0.17338 -0.47407 0.32268 -0.22283 -0.43323 -0.26939 -0.31697 -0.03995 0.04387 -0.04179
307 -0.51027 -0.40570 -0.87865 -0.39993 -0.52919 0.33815 -0.02096 0.01168 0.69360 0.70401 0.02513 0.16803 0.22599 0.41749 -0.67633 0.01878 0.16559 0.90422 0.14534 0.53742
308 -0.02830 -0.36024 -0.06382 0.04732 0.56921 -0.13249 -0.56853 0.86524 0.76116 -0.06583 0.16182 -0.24870 0.30616 -0.13411 -0.93201 -0.53917 -0.47126 -0.45878 -0.39632 0.79048
