308 20
1 0.05887 0.06011 -0.06343 0.07204 0.08363 -0.08973 0.00924 -0.21352 -0.22055 0.21196 0.16213 0.10518 -0.01433 -0.10136 -0.14069 -0.15323 -0.07794 0.14016 0.17759 -0.16536
2 0.03946 -0.16166 -0.40044 -0.38427 -0.14740 -0.28666 0.12839 -0.07170 0.00351 0.08306 -0.20403 -0.07006 0.12771 -0.06198 0.32915 -0.07980 -0.06562 -0.21826 -0.21671 -0.14829
3 0.03895 -0.11510 0.18104 -0.04008 -0.11284 0.18593 -0.02927 -0.03458 -0.13717 0.00840 0.01711 0.00604 -0.19226 -0.03247 -0.09942 -0.01187 0.03372 -0.20301 -0.09105 0.06803
4 0.07627 -0.11166 -0.13074 -0.21125 -0.08817 -0.20193 -0.01170 0.13012 0.13598 0.34586 0.11425 0.09707 -0.10088 -0.08371 0.19122 0.00862 -0.01695 -0.20519 -0.08614 -0.30210
5 0.10187 0.09229 -0.41094 -0.35505 -0.28791 -0.21913 0.10346 -0.02851 0.25368 0.27349 -0.08175 -0.12652 0.18761 -0.10762 0.22262 -0.04036 0.04106 -0.25102 -0.11835 -0.18837
6 -0.17302 -0.04543 -0.06031 -0.14226 -0.13991 0.06747 -0.00283 -0.11801 0.00457 0.09344 0.08114 -0.12110 0.13588 0.18958 -0.00095 0.17280 -0.00699 0.16703 0.07647 0.10659
7 -0.22355 -0.01360 -0.02626 0.00399 -0.23801 -0.08475 0.01939 0.09563 0.17931 0.02060 -0.15470 0.15513 0.11603 -0.10601 0.11500 0.11011 -0.14559 -0.23592 0.10644 -0.08076
8 -0.01696 -0.16151 0.10096 0.05850 -0.07592 0.15894 -0.17356 -0.15631 0.17078 -0.09241 -0.04269 0.12527 0.18944 -0.08097 0.12822 0.08599 0.08344 -0.09280 -0.06511 -0.04798
9 0.20094 -0.08262 -0.37087 -0.17785 -0.23290 -0.19679 -0.08816 -0.17650 -0.01666 0.32109 0.12643 -0.08954 0.09172 0.06022 0.27619 -0.19106 0.12683 -0.18886 -0.20710 -0.31167
10 -0.07843 -0.11793 -0.33481 0.20461 -0.28704 0.27613 -0.17347 -0.10753 0.17681 0.04124 0.21129 0.26617 -0.13109 0.31511 -0.23587 0.09690 -0.35370 -0.07417 -0.23182 -0.18444
11 0.20031 0.05181 -0.12528 0.02047 0.18866 0.18348 0.19595 0.20291 -0.25119 0.13401 0.04266 0.17517 -0.10421 -0.08486 -0.22767 -0.16067 -0.10762 0.18632 -0.10053 -0.01763
12 -0.03472 -0.14326 -0.07343 -0.07767 0.46447 -0.35580 -0.12503 0.34134 0.12159 -0.22930 0.15253 0.03790 0.22247 -0.19627 -0.05904 0.36551 -0.26581 -0.23269 -0.05100 -0.23143
13 -0.14423 -0.34923 -0.19375 0.20295 -0.01092 -0.22090 -0.04989 0.20080 -0.09631 0.08180 -0.33049 0.08429 0.01141 -0.33057 -0.01257 -0.09994 -0.06246 -0.12035 0.04251 0.02336
14 0.20312 -0.22087 -0.00395 -0.14821 -0.13591 0.04771 -0.16784 -0.01037 0.16316 0.18861 -0.14197 -0.17394 0.07877 0.00673 -0.09536 -0.05578 0.21303 0.10105 0.06554 -0.07982
15 0.38927 0.03481 -0.24900 0.00964 0.21396 -0.02911 0.03068 -0.01167 0.04279 -0.03548 0.07495 0.21027 0.37113 -0.38669 -0.08564 0.44551 0.30964 0.00791 0.19706 0.14905
16 0.07982 0.01502 -0.24609 -0.11473 0.03565 -0.07484 0.03470 0.16123 -0.02283 0.16394 -0.16393 0.37259 0.22240 -0.19322 0.24837 -0.01116 -0.28425 0.11880 -0.19868 -0.09543
17 -0.01029 0.39208 -0.00451 -0.17436 0.20129 -0.06877 0.33151 -0.08376 0.18479 -0.05703 0.32329 0.00070 0.04666 -0.03510 -0.08720 -0.14242 0.27339 -0.24167 -0.37487 -0.01830
18 -0.02689 -0.06776 0.10308 -0.20344 -0.08995 0.00246 0.11229 0.11774 0.21365 -0.17115 0.14091 0.05976 -0.03508 0.00230 -0.00408 0.13328 0.01789 0.07996 -0.09631 0.14031
19 0.10686 0.25982 -0.13372 -0.08501 0.12824 0.00047 0.05087 -0.05508 0.15157 0.20882 -0.19885 0.23170 0.16288 -0.04585 0.24149 0.00549 0.01550 0.22357 -0.14531 -0.05635
20 0.00944 -0.03443 -0.03551 0.20673 -0.18407 0.13092 -0.13707 0.02923 0.08079 -0.05639 -0.16620 -0.15496 0.14305 -0.05969 -0.14688 0.15697 0.00573 -0.01559 -0.18238 0.12107
21 -0.16509 0.02239 0.12363 -0.16921 0.03070 0.32139 0.01031 -0.06008 0.13161 0.18925 -0.34981 -0.16999 -0.14149 -0.28576 -0.16548 -0.14909 -0.09624 -0.01670 0.20466 0.05059
22 -0.25156 0.01797 0.19441 0.02738 0.22784 -0.15328 0.23594 -0.02559 -0.18644 0.23470 -0.30378 0.42085 -0.03674 0.27316 -0.18403 0.00596 -0.10318 0.30287 -0.04805 -0.08232
23 -0.12674 -0.06849 0.25257 -0.10915 -0.04150 0.20536 0.29740 -0.28696 -0.06768 0.13063 -0.26821 0.04184 -0.04897 -0.15631 0.03212 0.04892 0.08103 -0.03658 0.05811 -0.04237
24 0.18941 0.00847 -0.19302 -0.23329 -0.00498 -0.04839 -0.07724 -0.03097 0.13118 0.04919 0.03347 0.14035 -0.03650 0.00324 -0.01593 -0.14012 0.09215 -0.12445 -0.04178 -0.04290
25 -0.12337 0.05645 0.16085 0.17890 0.01171 0.15677 0.22844 0.14526 0.07553 0.04876 0.21732 0.18846 -0.27230 0.16252 0.17535 -0.24364 -0.11488 0.01757 -0.03509 0.12498
26 -0.07295 -0.15444 0.13555 -0.03685 0.04088 0.24089 -0.15479 0.07707 -0.10351 0.05683 0.12084 -0.10471 0.02087 0.03443 -0.09690 0.10230 0.10826 -0.07973 0.05570 -0.01570
27 0.11365 -0.20283 0.19261 0.23507 0.06616 0.02773 -0.06957 0.01373 -0.15111 0.03629 -0.00307 -0.24466 0.23039 -0.13043 -0.38617 -0.07663 0.04561 -0.14348 -0.01145 -0.01959
28 -0.01182 -0.11253 -0.17687 -0.18670 -0.14127 -0.14202 0.09985 -0.05207 -0.13909 0.02694 0.02464 0.01139 -0.17991 0.16129 -0.05298 0.13192 -0.04038 -0.08303 -0.08521 -0.14730
29 0.12837 0.08547 -0.11285 -0.13442 0.02651 -0.07500 -0.01602 -0.04295 -0.29059 0.06394 0.07120 0.28415 -0.15572 0.39144 0.10693 -0.26622 0.18505 0.01230 -0.38055 -0.48688
30 -0.27903 -0.26293 0.15316 0.23504 -0.20204 -0.09693 0.17931 0.09734 -0.03240 -0.08750 0.02904 0.12295 0.18618 0.07222 0.21812 -0.04269 -0.10666 -0.19938 -0.13332 -0.22107
31 -0.12964 -0.21559 0.14564 0.30980 -0.06314 0.20648 -0.06187 0.13658 -0.17371 0.01225 0.04894 0.02375 0.16146 -0.13688 -0.17105 0.15758 0.17221 -0.05617 0.11172 -0.10334
32 0.03892 -0.02128 0.21102 0.27808 -0.20023 0.23085 0.00026 -0.11193 -0.23058 -0.32006 0.12670 0.16424 -0.05901 0.08184 -0.15107 -0.06987 0.19404 -0.21024 -0.03524 -0.01518
33 0.03592 -0.22677 0.19519 0.22795 -0.25388 0.18972 -0.05743 -0.03931 -0.04105 -0.02706 0.07706 -0.02848 0.10415 -0.18351 -0.21504 -0.00654 0.13394 -0.24592 -0.16670 -0.02131
34 0.22665 -0.18885 -0.15214 -0.25828 0.02520 -0.15513 -0.25948 -0.02216 0.10790 0.19680 0.08821 -0.19693 -0.15881 0.13360 -0.22037 -0.21044 0.02870 -0.08678 -0.08716 0.08027
35 -0.11738 0.18797 0.09582 0.00196 0.15154 -0.15148 -0.00604 0.06241 0.05023 -0.02319 0.10509 0.11631 -0.18086 0.05113 -0.01904 -0.09666 0.20752 -0.11343 0.27134 -0.21878
36 -0.05266 -0.19126 0.31519 0.11369 0.02471 0.06718 0.12593 0.25777 0.17442 -0.00519 0.30157 0.08658 -0.05930 0.08508 0.24592 -0.20557 -0.32669 0.00941 0.11677 -0.04207
37 -0.01668 -0.10833 0.17197 0.08402 -0.23450 0.32313 0.11947 0.18337 0.23068 0.03193 0.33759 0.13718 -0.20958 0.24186 0.33592 0.04728 -0.29768 0.01662 0.10382 -0.03569
38 0.08833 0.32636 -0.28050 -0.13202 -0.15032 -0.45379 -0.06314 -0.21249 -0.25932 -0.19892 -0.24440 0.25926 0.15698 -0.10063 0.06258 0.09482 -0.20518 0.20672 -0.19348 0.17102
39 -0.04436 0.00814 -0.11276 -0.11482 -0.21736 -0.15176 -0.08143 -0.00405 0.19365 -0.13480 -0.18349 -0.11523 0.25741 -0.03551 -0.20325 -0.00499 0.08933 -0.16583 -0.19041 0.09117
40 -0.14866 -0.07522 -0.14171 0.18084 -0.02435 0.03512 -0.11336 0.12881 -0.07188 -0.06093 0.16723 -0.08430 -0.01283 -0.18608 0.10806 0.11658 -0.05187 0.03197 0.10959 0.07584
41 0.04685 0.09849 0.07725 -0.09602 0.07512 -0.16616 0.05518 0.02934 0.02435 0.15893 0.25230 0.13238 0.08065 0.07023 -0.15181 -0.11132 0.21537 -0.17651 0.05481 -0.12055
42 0.12531 -0.29724 0.02873 -0.03894 0.23896 -0.35149 -0.35128 0.17523 0.06856 -0.06831 -0.01922 0.26423 -0.05465 -0.11979 -0.14812 0.35590 0.23141 -0.00564 0.00523 -0.15378
43 -0.07280 0.01365 -0.26302 0.15189 -0.32763 0.24951 -0.15676 -0.08722 0.18554 -0.07723 0.15606 0.27501 -0.07022 0.29560 -0.20471 0.12016 -0.29848 0.04891 -0.24812 -0.16521
44 -0.07598 -0.19978 -0.14993 -0.16483 0.13441 0.05551 -0.12893 -0.26461 0.05383 -0.07729 -0.02844 -0.00311 0.06218 0.21144 0.14757 0.14728 -0.07475 0.09882 -0.02966 -0.14660
45 0.22313 0.10378 -0.17255 0.01267 -0.01004 -0.04351 -0.02959 -0.15158 0.18948 -0.12698 0.04109 0.19629 0.04202 -0.03544 -0.09663 0.13797 0.21943 -0.20422 0.08429 -0.02166
46 -0.19536 0.07090 0.34830 0.05769 -0.19210 0.34710 -0.01355 -0.03190 0.02127 -0.06407 -0.12342 -0.18908 -0.04813 -0.38762 -0.08761 -0.21556 -0.03592 -0.14001 -0.03515 -0.05671
47 -0.16015 0.31686 -0.09182 0.33701 0.01864 0.26240 0.37535 0.18969 -0.14552 -0.03424 0.08882 0.07383 0.13483 0.18657 0.18584 0.09012 0.07789 -0.10521 -0.20076 0.00781
48 0.00867 0.06523 -0.16754 -0.19063 0.04477 0.17193 0.15056 0.17528 0.15474 -0.08354 0.08674 0.08800 -0.17803 0.08071 0.01468 0.07720 0.08953 -0.11223 -0.12544 -0.16183
49 0.05108 0.33962 0.24328 0.24850 0.14442 0.26691 0.43262 0.06419 -0.03877 -0.14941 0.21022 0.02290 0.01278 0.08364 0.12606 -0.12195 0.06565 -0.17267 0.03051 0.12911
50 0.22993 0.24983 0.19804 0.31399 -0.03360 0.01138 0.33267 0.14074 0.18525 -0.04017 0.07582 0.01041 0.10915 0.06821 0.08809 0.14450 0.08985 -0.11863 -0.08086 -0.06814
51 0.03281 0.40682 -0.60744 0.24822 -0.02355 0.00528 -0.06950 -0.21988 0.08233 0.42253 0.33943 0.27344 0.19647 -0.05511 -0.40766 -0.30316 0.17774 -0.01008 0.13473 -0.00987
52 -0.06322 -0.20282 0.05428 0.02457 -0.04687 -0.15086 0.01940 -0.13922 -0.11283 -0.00427 0.07635 -0.32499 -0.05894 0.16333 -0.39954 -0.03099 0.05473 -0.17079 0.06223 -0.36516
53 -0.13976 -0.00919 -0.14040 -0.17106 0.36480 -0.38630 -0.02592 0.25973 0.16148 -0.22482 0.18104 -0.04674 0.23377 -0.07167 0.10787 0.31563 -0.34526 -0.29855 -0.08319 -0.17152
54 0.04521 0.24946 0.16994 -0.16700 -0.01834 -0.00713 -0.18516 0.02440 0.11169 -0.21548 0.19720 -0.19785 0.01110 -0.04344 -0.05115 -0.31267 -0.22333 0.14827 0.28750 -0.17923
55 -0.22373 -0.11218 -0.21730 -0.06378 0.44366 -0.37552 -0.09764 0.26903 0.06492 -0.16525 0.19924 -0.09196 0.21806 -0.11539 -0.08086 0.19821 -0.26730 -0.33693 0.12163 -0.09128
56 -0.02178 0.39749 -0.59083 0.17541 -0.04075 0.12593 -0.09670 -0.18326 -0.01049 0.38353 0.35353 0.32717 0.22666 -0.04855 -0.41773 -0.27266 0.13620 0.02272 0.18423 -0.10630
57 -0.04983 0.06939 0.15365 -0.03744 0.03299 0.07502 0.16387 0.02273 0.05993 0.23868 -0.21958 -0.07341 -0.17106 -0.27157 0.11256 -0.31830 0.17070 0.04641 0.17926 0.06763
58 -0.08220 -0.12198 0.28821 -0.12722 0.09371 0.27692 0.07697 -0.22604 0.01651 0.12381 -0.23914 -0.06727 0.00124 -0.36155 -0.06112 -0.17362 0.01585 0.00508 -0.05173 0.10420
59 0.03507 -0.17819 0.09067 0.03152 0.14064 0.00210 -0.23692 0.01009 0.16897 0.10783 0.22059 0.23898 -0.00041 -0.05086 -0.21038 -0.20080 -0.18625 0.04876 0.01215 0.16457
60 -0.31626 0.05288 0.13329 0.16549 -0.12156 -0.03103 -0.23293 -0.39222 -0.22851 0.12467 0.01643 0.03078 0.08907 0.07219 0.06996 0.26064 0.02580 0.03800 -0.19727 -0.05629
61 0.05232 0.16185 -0.04687 -0.10305 0.00721 -0.10634 -0.03892 -0.15938 0.00387 0.10747 -0.15629 -0.03372 -0.19346 0.03683 -0.11332 0.08820 -0.07533 0.13495 0.01739 0.05298
62 -0.01522 -0.13206 0.06659 0.04301 -0.04190 0.27400 -0.19663 -0.11249 0.00709 -0.03945 0.13459 -0.26682 -0.11639 0.09989 -0.24593 0.10513 -0.09187 -0.13567 -0.06850 -0.14609
63 0.04177 -0.06202 -0.01177 0.11180 0.49059 -0.41678 0.08917 -0.05043 -0.08894 -0.29620 0.07897 -0.22496 -0.04943 -0.12382 -0.02761 -0.19233 -0.01830 0.15536 0.01657 0.32954
64 0.06551 -0.20585 0.16064 0.19791 -0.17228 0.03214 0.02608 0.12479 -0.19322 -0.11597 -0.09407 -0.04551 0.00809 -0.05724 -0.27477 -0.03534 0.02501 -0.32163 -0.12703 -0.23531
65 -0.12123 -0.03557 -0.23409 -0.12994 -0.19498 0.17275 -0.11391 -0.32619 -0.13539 -0.01350 -0.11040 -0.04133 -0.19466 -0.26019 0.21309 0.30240 -0.07388 0.24010 -0.03927 0.32309
66 -0.23171 -0.09827 -0.12744 -0.16404 -0.28151 0.22414 0.00904 -0.18894 0.05401 0.12358 0.04463 0.11982 -0.03319 -0.18350 0.32944 0.30140 -0.16473 0.11555 -0.21076 0.20540
67 0.21997 -0.18609 -0.21412 -0.03173 0.02603 0.11223 -0.00768 0.11572 0.06012 -0.06283 0.12257 -0.24188 -0.11181 -0.14826 -0.05073 -0.06370 0.08926 -0.14207 0.18547 -0.11735
68 0.13389 -0.29781 0.17492 -0.02018 -0.04320 0.05086 -0.04927 0.26309 -0.37835 -0.14327 -0.01044 -0.23158 0.26683 0.36935 -0.03439 0.10532 -0.28949 0.33333 0.09926 0.11176
69 0.10034 0.27813 0.06207 0.08542 0.07579 0.14480 -0.29750 -0.02040 0.06013 -0.30377 0.00903 -0.18823 0.34474 -0.26995 -0.18867 -0.24179 -0.31032 -0.05325 0.35968 0.11371
70 0.13653 -0.29379 0.07552 -0.08530 0.14515 -0.09250 -0.07457 -0.07615 -0.03516 -0.07653 -0.10257 -0.26782 -0.13843 -0.03121 -0.32064 0.06294 -0.01559 0.01954 0.16891 -0.18968
71 -0.18627 0.08375 0.22857 0.17014 0.36472 -0.00940 -0.01985 -0.14991 0.26833 0.17103 0.09762 0.00334 -0.19020 -0.22375 0.23515 -0.12253 0.26025 -0.07553 0.29077 0.09856
72 -0.09982 -0.19041 -0.02593 0.02700 0.01851 -0.19979 -0.20165 -0.10999 0.14231 0.22663 -0.20923 -0.07016 -0.02356 0.16512 0.11739 -0.12712 -0.06135 -0.18436 -0.06765 0.22339
73 0.03406 0.09966 -0.11664 0.33888 -0.04940 -0.30171 -0.05738 0.18380 -0.11191 -0.25651 -0.32555 0.19655 -0.38224 -0.06075 -0.17643 -0.02209 -0.15867 0.27510 0.00842 -0.01265
74 0.17750 -0.11475 0.03141 -0.04311 0.07483 0.11688 -0.01103 -0.01722 -0.05567 -0.14486 0.05260 0.01186 0.09859 -0.05472 0.01230 0.08850 0.00736 -0.09136 0.18138 0.22437
75 -0.12284 -0.04021 0.08453 -0.11167 -0.07471 -0.14012 -0.00456 0.15687 -0.02208 0.21604 0.21790 -0.01826 -0.04639 -0.00153 -0.00667 0.00571 -0.12583 0.15396 0.13741 -0.15398
76 -0.02184 -0.02278 -0.05423 0.12575 -0.09708 0.16881 -0.26807 0.21692 -0.06876 -0.11427 0.12347 -0.03076 0.19579 -0.14440 0.03147 0.00130 -0.21669 0.02454 0.22908 0.03439
77 0.16032 0.02416 0.12446 -0.10397 -0.17429 -0.10363 -0.27956 0.12961 -0.06268 -0.03046 0.07141 -0.04891 0.20859 0.09293 0.17893 -0.17686 -0.33806 0.14719 0.19063 0.09296
78 -0.03148 0.04656 0.08401 -0.12004 -0.05885 -0.10588 -0.08238 0.00830 0.11817 0.04579 -0.01153 0.24368 -0.02809 0.09192 -0.01628 0.01359 -0.23640 -0.23371 -0.12582 0.01969
79 0.20485 0.13554 -0.12692 0.18163 -0.03568 0.00541 -0.15127 -0.14033 0.00213 0.11267 0.10276 -0.15470 -0.01864 -0.20597 0.19223 -0.04331 -0.10609 -0.07593 0.18975 -0.10074
80 -0.26302 -0.24734 -0.13197 0.13224 -0.22066 -0.06546 0.24977 -0.01485 -0.00596 -0.08012 0.03242 0.14453 0.09047 -0.16833 -0.00174 0.14445 0.09842 -0.09196 -0.10772 -0.22920
81 -0.01224 -0.14998 0.25925 0.24052 0.05281 0.26167 0.15786 0.06012 -0.07092 0.13246 -0.17553 0.02520 0.16285 -0.06878 -0.38573 0.00112 -0.12492 -0.31503 0.18113 -0.18250
82 0.12880 -0.21960 0.06858 -0.03475 0.06745 0.22179 0.18878 -0.15340 0.05266 0.12966 0.03851 -0.21117 0.05385 -0.09693 -0.29667 -0.10854 -0.12738 -0.24366 -0.17729 -0.22222
83 0.23698 -0.03364 0.37289 0.01156 0.25665 0.19414 0.26262 0.01408 -0.20668 -0.07585 -0.19991 -0.03807 0.02852 -0.15902 -0.08838 -0.08932 -0.29225 0.40335 -0.37658 0.20109
84 0.23970 0.01134 0.11508 0.18018 -0.07809 -0.05433 0.03540 0.02154 -0.17745 -0.17711 -0.13673 -0.01525 0.20063 -0.02763 -0.37437 0.16550 0.01522 -0.28502 0.02827 -0.28925
85 -0.23058 0.05598 0.14728 0.16016 -0.09925 0.25741 -0.18082 0.04366 -0.05044 0.07292 0.24406 0.09177 -0.02954 -0.09921 -0.04225 0.21422 -0.11068 0.08683 0.11387 0.21212
86 0.10030 -0.00612 0.06878 -0.25906 0.37496 0.32478 -0.02348 0.11015 -0.01019 -0.05152 -0.09406 0.43422 -0.23930 0.20392 0.15236 0.10747 -0.05129 -0.15688 -0.03639 -0.15779
87 -0.06398 0.18790 0.06691 -0.02377 0.01328 -0.14535 -0.09174 0.13792 0.04643 0.00609 -0.01300 0.20048 -0.12622 0.08016 -0.12431 -0.07274 -0.19818 -0.19231 -0.05355 -0.14926
88 -0.10180 0.07556 -0.13468 -0.16840 0.12393 -0.19342 0.09692 -0.07249 0.04631 0.08470 -0.26439 0.17589 0.17378 0.05947 0.29568 -0.03186 -0.14996 0.12813 -0.10560 -0.17812
89 -0.25917 -0.13911 -0.02068 0.02303 -0.08208 -0.30537 0.47396 -0.07095 0.46515 -0.30836 0.46665 0.16466 -0.11093 -0.02513 -0.03474 -0.14725 0.21020 -0.06349 0.06306 0.02989
90 -0.13060 -0.09303 -0.15423 -0.03573 -0.11220 -0.17875 0.09081 0.03742 -0.04480 -0.00561 -0.02684 -0.18254 0.16201 -0.05258 0.16820 -0.19697 -0.06287 -0.06299 -0.17046 0.02129
91 0.12568 0.02100 -0.03099 0.01928 -0.16807 0.19368 0.08688 -0.10813 0.18329 -0.19122 0.29810 0.00492 -0.19486 0.00065 0.14564 0.05637 -0.00298 0.03364 -0.15621 0.01566
92 -0.15829 0.00381 0.10166 -0.01804 0.13924 -0.60795 0.33161 -0.16380 -0.29093 0.09398 -0.44653 -0.38250 0.01748 0.00932 0.01505 0.04638 -0.19129 -0.01633 -0.03202 0.01128
93 -0.08544 0.02095 -0.08079 -0.17117 -0.11161 -0.12018 -0.17574 0.00176 -0.04749 0.26529 -0.11104 -0.13014 -0.16621 -0.11312 0.23028 0.18752 0.00968 -0.09730 -0.03336 -0.15736
94 -0.11092 0.29017 0.12705 0.31918 -0.02432 0.27919 0.49290 0.19766 0.12484 0.14981 -0.02229 0.08390 -0.07417 0.08418 0.05911 0.04991 0.33658 0.08330 -0.00009 -0.00430
95 0.05615 -0.02433 -0.16049 -0.47781 0.04902 0.09507 0.13262 -0.35447 0.14427 0.01027 0.00712 -0.08366 0.18910 0.10783 0.43199 -0.38550 0.10032 -0.04250 -0.08839 0.35888
96 0.08564 0.33851 0.19968 0.25929 0.19581 0.06025 0.47539 0.25580 0.05295 0.07081 -0.03283 -0.18628 -0.07103 0.31239 0.20542 -0.05596 0.09999 -0.17580 -0.00495 -0.02077
97 0.04344 0.26184 -0.07288 0.35702 0.09470 0.17286 0.21812 0.31960 -0.06564 -0.10580 0.17200 -0.19334 -0.05255 0.00662 0.12552 0.05625 0.26484 0.03704 -0.01683 -0.07417
98 0.09456 0.15431 0.16943 -0.20170 -0.20429 0.27603 0.25104 -0.10718 0.19789 -0.13684 -0.23654 -0.03842 0.05697 -0.32683 -0.09260 -0.14601 -0.06410 -0.14714 0.14911 0.21643
99 -0.10837 0.00248 0.17197 0.05519 0.35499 -0.02056 -0.06714 0.01321 0.22148 0.09622 0.03082 0.03405 -0.20325 -0.18744 0.18940 -0.05012 0.32811 -0.01797 0.31744 0.10140
100 -0.18332 -0.02093 0.08079 -0.00220 0.15739 -0.01421 0.12059 0.09954 -0.05078 -0.05905 0.09523 0.00551 0.06162 0.18135 0.05985 -0.00844 -0.23490 -0.07219 -0.09381 -0.07305
101 -0.10149 0.09302 0.20014 0.03422 0.14443 -0.55661 0.32800 -0.05290 -0.20391 0.00036 -0.36184 -0.17380 -0.04422 -0.02103 0.02581 0.25575 -0.07639 -0.08592 -0.05353 -0.04485
102 -0.04087 0.25827 0.17793 0.15884 -0.08179 0.22462 0.51416 0.11682 0.09803 0.10665 -0.06298 -0.20562 0.05489 0.33684 0.14780 0.13590 0.18615 -0.07683 -0.02123 0.14040
103 -0.13728 0.06973 -0.00496 0.12535 0.19626 -0.25174 -0.18749 0.11502 -0.04842 0.06393 0.11240 0.16721 -0.00050 -0.07936 -0.03159 -0.07348 -0.08925 -0.15660 -0.13172 0.09780
104 0.20506 -0.26194 -0.08070 -0.13863 0.20551 -0.34554 -0.39909 0.26103 0.12969 0.00797 -0.10885 0.30799 -0.10115 -0.15402 -0.06872 0.37813 0.29988 0.03258 -0.04840 -0.16141
105 -0.17924 -0.03470 0.01425 0.30154 0.18556 0.03238 -0.14289 0.18008 0.19348 0.36066 0.21269 0.16484 0.28430 0.04262 0.22646 -0.01986 0.16306 -0.14039 -0.11450 0.25712
106 0.06146 -0.07201 -0.17300 -0.04682 0.00344 0.15988 -0.32116 0.02998 0.03177 -0.24810 0.29255 -0.00807 0.19707 0.06310 0.01121 -0.18833 -0.24892 0.20059 0.28071 -0.20920
107 0.18494 0.00931 -0.19641 0.13919 -0.04040 0.01860 -0.13749 0.09103 -0.13438 -0.29405 0.21116 -0.06439 0.08997 -0.20179 -0.10123 0.00076 -0.12166 0.20755 0.32199 -0.11961
108 0.02765 0.08250 0.10744 -0.09965 0.03868 0.07246 -0.08993 0.01229 -0.11355 -0.08426 -0.06996 0.03296 0.16809 0.06451 0.07577 -0.13626 -0.10809 0.10914 -0.01478 0.09841
109 -0.16683 0.19646 0.03171 0.30982 0.09898 0.13468 -0.13010 0.09231 0.14449 0.35943 0.10679 0.08015 0.28974 0.20336 0.24491 0.09617 0.27016 0.00552 0.02239 0.20736
110 0.14512 -0.05210 -0.28798 0.15878 -0.00662 0.19633 -0.31853 0.16382 -0.24262 -0.14794 0.03200 0.15560 -0.23668 0.02902 -0.08061 -0.30667 0.25158 0.18173 0.00187 0.04927
111 -0.06818 -0.04288 -0.24400 0.27447 -0.15005 0.19693 -0.12418 -0.05603 -0.10231 -0.03539 -0.11195 0.28041 -0.07902 0.07754 0.04042 -0.06211 0.16283 0.08784 0.15432 -0.03227
112 0.42713 0.16169 -0.20014 -0.09355 0.10513 0.01934 -0.11239 -0.17466 -0.07753 0.01838 0.15129 0.11550 0.41922 -0.39953 -0.13477 0.42805 0.29353 -0.04150 0.12964 0.07503
113 -0.19897 -0.24500 -0.25675 0.28355 -0.23295 0.05731 -0.37949 0.16849 0.13929 -0.21096 -0.45989 0.49220 0.16561 -0.07332 0.03581 -0.22881 0.14657 -0.09538 -0.14870 0.29643
114 0.13967 0.07473 0.05534 0.28160 -0.29875 -0.02642 0.11391 0.18039 -0.11755 0.04839 -0.08988 -0.09801 0.09301 -0.10950 -0.00113 0.21812 -0.00148 -0.00714 0.01813 -0.28086
115 -0.25958 0.09055 -0.04021 0.04240 -0.15976 0.22764 -0.19666 -0.21390 -0.08090 -0.08172 -0.10379 0.16468 -0.14525 -0.23261 0.15668 0.40103 -0.12042 0.14000 -0.14266 0.24411
116 0.01409 -0.14066 -0.27846 0.04366 -0.17517 -0.04759 -0.42582 0.07907 -0.27525 0.08284 -0.07742 0.09762 -0.15271 0.10382 -0.16305 -0.28156 0.29441 0.03362 0.15396 0.04413
117 -0.08937 0.00201 -0.05268 -0.08748 0.04507 -0.09208 -0.12608 0.03315 -0.20381 -0.00217 0.11586 0.22636 -0.17998 0.01326 -0.26574 -0.22473 0.20659 0.01210 -0.03187 0.11407
118 0.22879 -0.03927 -0.04432 0.00508 -0.20504 0.05062 -0.03435 0.05338 -0.16070 0.01773 0.05556 0.01189 -0.09754 0.12002 -0.23130 -0.15309 0.32678 -0.05349 -0.17012 0.17409
119 -0.09461 -0.04339 0.06061 0.12892 0.12440 0.16039 0.19883 0.08698 -0.15431 -0.14399 -0.13537 -0.27848 0.07677 0.05561 -0.23599 -0.03058 0.18112 -0.29154 0.11136 -0.35277
120 -0.04970 0.00679 -0.33229 0.12067 -0.34064 0.28061 -0.29620 0.10576 -0.21671 -0.15281 -0.12363 0.18278 -0.29735 0.12004 -0.14273 -0.05230 0.25099 -0.06056 -0.15450 0.05541
121 -0.00077 -0.35815 -0.03893 0.20496 -0.08539 0.07064 0.22962 0.21123 -0.19818 0.08682 -0.16553 -0.03191 -0.11114 0.04102 -0.35720 -0.13362 0.08329 -0.06014 -0.05799 -0.09989
122 -0.16358 -0.11407 -0.12879 0.20484 -0.20524 0.10292 0.04469 0.06746 -0.04890 -0.22121 0.00978 0.02866 0.18626 -0.02755 0.00092 0.21545 0.01975 -0.15987 0.12818 -0.22302
123 0.12782 -0.05496 0.17517 0.01652 -0.12820 0.09128 0.04775 -0.14529 -0.08340 -0.15782 0.18361 0.00037 -0.00557 0.20566 0.02172 -0.01482 -0.05842 -0.15037 -0.23262 0.13919
124 -0.10938 -0.00998 0.12196 -0.20417 0.08746 -0.14981 0.04355 -0.10856 -0.13466 0.11338 -0.11766 -0.16980 -0.00638 -0.10457 -0.22582 -0.13810 0.16726 0.17866 0.04596 0.09706
125 -0.00424 0.20621 0.00051 -0.18115 -0.17964 -0.07034 0.03773 0.09031 -0.14629 0.09997 -0.15790 0.35273 0.16384 -0.02595 0.12354 0.03972 -0.08791 0.00392 -0.18688 0.13795
126 -0.28484 0.18256 0.12531 -0.19578 -0.19742 0.17413 -0.06440 -0.17066 0.05252 -0.32651 -0.11558 0.11797 0.04033 0.21449 0.40163 0.04993 -0.03991 0.08711 0.27101 -0.04709
127 0.15641 0.16625 -0.03484 -0.23513 -0.12724 -0.00005 -0.08513 0.17462 -0.01430 0.23147 -0.22896 0.08021 0.07612 -0.01707 0.24641 -0.03375 -0.11856 0.13272 0.01125 0.01407
128 -0.05808 -0.15782 0.07700 0.11017 -0.23569 0.05123 0.03963 -0.01589 -0.05712 -0.17472 0.12516 0.04401 0.02144 0.18016 0.18936 -0.04682 -0.04001 -0.00506 -0.04278 -0.15601
129 -0.29654 0.02193 -0.00486 -0.03627 0.00347 -0.09159 -0.15052 -0.40075 -0.17597 0.21570 -0.03536 0.00042 -0.02566 -0.03015 0.15199 0.14336 -0.07315 -0.00813 -0.14236 -0.01264
130 0.11161 -0.27523 0.25509 -0.00299 -0.13010 0.04721 -0.03330 0.18468 -0.37188 -0.22420 -0.13632 -0.25778 0.31203 0.35338 -0.04543 0.17182 -0.21938 0.31589 0.10064 0.20094
131 0.22366 0.09216 -0.22145 0.18153 0.05423 0.16565 -0.14016 -0.22123 0.16030 -0.07192 0.05139 0.12297 0.12222 0.27213 -0.21730 0.17706 -0.00203 -0.05053 -0.08202 -0.18592
132 -0.12936 -0.05393 0.34689 -0.00975 -0.14747 0.25639 0.09223 -0.17956 -0.11127 0.03396 -0.02707 0.04782 -0.12324 -0.24404 0.10118 -0.26588 0.18326 -0.26354 0.05984 0.19245
133 0.22209 -0.11135 0.08831 -0.17739 0.09099 0.06511 0.04188 0.07214 -0.06976 0.07355 -0.04246 -0.06333 -0.03318 -0.09480 0.11162 0.26562 0.13992 -0.04279 0.02491 -0.16534
134 0.03795 0.14614 0.02825 0.30647 -0.23308 -0.01834 -0.18348 -0.09688 0.23538 -0.13615 0.00819 -0.02860 -0.09745 -0.13907 0.44080 0.17817 0.16899 0.09289 0.26759 0.27532
135 -0.05558 0.03148 0.19392 -0.16100 -0.14895 0.21614 0.06335 -0.20532 0.13202 0.07406 -0.21667 -0.21763 -0.00017 -0.06579 -0.19193 -0.07564 -0.08364 -0.11759 0.27317 0.06251
136 -0.10215 -0.06700 -0.21759 -0.06053 -0.00520 0.04325 0.15879 -0.01211 0.02362 0.21403 0.05282 0.20327 -0.07415 -0.12210 0.11348 0.16750 -0.13158 0.03861 -0.26453 0.02309
137 -0.12580 -0.02997 0.01388 -0.09219 0.11845 0.03135 0.26329 0.09380 -0.05922 -0.07229 0.16393 -0.10704 -0.07012 -0.11296 -0.10776 -0.20925 0.08982 -0.14504 -0.23116 -0.12884
138 -0.00249 -0.05760 -0.12293 0.06815 -0.02294 0.01343 -0.05556 -0.23936 0.07814 0.09133 -0.03946 0.04099 -0.21113 -0.20744 0.01919 0.01390 0.02310 -0.14111 0.10391 0.03201
139 -0.18891 0.10275 0.25843 0.07406 0.26554 -0.15763 0.25173 0.11577 -0.17151 0.26569 -0.33768 0.41489 0.06193 0.21729 -0.20918 0.12608 -0.12787 0.30252 -0.15263 -0.17083
140 -0.12079 -0.10255 0.05308 0.21034 -0.19517 -0.07608 -0.11840 0.05361 -0.02926 0.02084 -0.12863 0.15875 -0.15632 -0.12534 -0.01985 0.11414 0.14852 0.18265 0.22334 0.16096
141 -0.18538 0.09422 0.14485 0.02486 0.19439 0.00609 0.16557 0.04043 0.02010 0.15589 -0.13247 0.19161 -0.27042 0.12800 0.09995 -0.13181 -0.20588 -0.06499 0.07895 -0.04882
142 -0.32442 0.08517 0.16749 -0.09879 -0.18794 0.09944 -0.18663 -0.16905 0.06712 -0.27968 0.06598 0.02619 0.00136 0.12072 0.41597 -0.08203 0.06494 0.07041 0.33201 0.19997
143 -0.07414 -0.07394 0.43990 -0.02748 -0.27884 0.17762 0.31030 -0.03668 -0.22382 -0.34445 -0.18750 0.12815 0.20627 0.05728 -0.13982 -0.21795 -0.06486 0.10113 0.03069 -0.20138
144 0.04493 -0.03249 0.28686 -0.11159 -0.20573 0.07326 0.15962 -0.10847 -0.14750 -0.30414 -0.28915 -0.00584 0.29766 0.09717 -0.14369 -0.28016 0.05313 0.21859 -0.06143 -0.25869
145 -0.15834 -0.00125 -0.08823 0.28532 -0.10892 0.08857 0.03492 -0.01613 0.21782 -0.36475 -0.09061 -0.03120 0.01172 0.14668 0.41915 0.03409 0.27627 -0.05328 0.08199 0.28581
146 -0.00779 -0.31906 -0.23725 0.06492 0.15315 -0.18506 -0.02193 0.22146 -0.07033 0.19228 -0.10612 0.18873 -0.00451 -0.31663 0.03162 -0.09362 0.03464 -0.22688 0.13922 0.14224
147 0.02126 -0.11256 -0.17473 -0.05484 0.08218 -0.07992 0.00177 -0.10466 -0.03638 0.04569 0.06132 0.11960 -0.06985 0.01842 0.06310 0.15537 0.12893 0.22442 0.14039 -0.10642
148 0.10848 -0.02968 0.12254 -0.19477 -0.01537 0.10837 0.14762 0.03196 -0.34982 -0.13555 0.06659 0.15063 -0.02596 -0.23868 -0.16681 -0.22326 -0.08616 0.28810 -0.25146 0.09333
149 0.06094 -0.15886 0.24463 -0.00209 -0.07845 0.07551 0.05885 -0.15368 -0.14205 -0.12120 0.10006 0.16725 0.11418 -0.20185 -0.22311 0.12169 0.19337 0.17351 0.03334 0.05068
150 0.25799 -0.13660 -0.16369 0.27717 0.25696 0.09179 -0.33405 0.16856 -0.01262 -0.31887 0.13964 -0.10294 0.10992 -0.03227 -0.03382 0.44486 -0.23494 -0.11495 0.05575 -0.32671
151 0.23315 -0.17525 -0.14759 0.28270 0.24353 -0.02959 -0.22046 0.02643 -0.01133 -0.31917 -0.02706 -0.21791 0.04661 -0.18512 -0.04635 0.43973 -0.15465 -0.19570 0.07141 -0.31853
152 0.09819 0.15827 -0.15010 0.17093 -0.33487 0.27094 -0.22750 -0.09711 -0.19191 -0.17743 -0.08291 -0.01230 -0.10398 -0.02411 -0.13956 0.00800 0.32574 0.04847 -0.00585 -0.09635
153 -0.00232 -0.03036 0.30177 -0.24978 0.04827 0.39311 0.10613 -0.23876 -0.03562 -0.47745 0.14478 -0.10957 -0.05056 0.20014 0.04616 0.13501 -0.32523 0.08197 -0.09853 -0.07631
154 -0.00508 0.10354 0.39761 -0.13025 -0.26007 0.22943 0.28456 -0.06339 -0.06793 -0.16730 -0.29465 0.03571 0.18733 -0.06884 -0.11868 -0.31248 -0.01845 0.16507 -0.06346 -0.01807
155 0.06758 0.11349 0.02530 -0.08594 0.34910 0.34585 -0.08286 0.12365 0.13497 0.04261 -0.17984 0.42643 -0.11608 0.13288 0.16930 0.20318 0.10838 -0.09404 -0.05041 -0.17566
156 -0.14720 -0.01033 -0.19686 0.04763 -0.00287 -0.04861 -0.04231 -0.03797 0.16424 -0.09364 0.02538 -0.15557 0.14602 0.05055 -0.04940 -0.07812 0.12692 -0.19006 -0.00008 -0.04426
157 0.16199 -0.05672 0.18238 -0.02929 -0.02819 -0.18537 -0.29633 -0.06250 -0.12367 0.29032 -0.11171 -0.10226 0.12155 -0.02242 0.14000 0.17233 0.06835 -0.05570 -0.24366 -0.10980
158 -0.06128 -0.08945 0.13334 -0.02443 -0.24338 -0.11703 -0.20092 0.36845 -0.36838 -0.04380 -0.42437 -0.51350 0.22176 -0.31390 0.02549 -0.03842 -0.01488 -0.37794 0.00637 0.08464
159 0.07001 0.00993 -0.13367 -0.12300 0.04256 -0.08041 -0.05220 -0.04843 -0.25869 -0.02245 0.05969 0.25154 -0.03619 0.43069 0.09516 -0.30199 0.19063 0.04968 -0.33996 -0.47149
160 -0.24548 0.45891 0.13809 0.31773 0.13529 0.01361 -0.34908 0.31754 -0.16287 -0.37387 -0.43161 -0.10105 -0.11390 -0.14618 0.00933 -0.19274 0.10172 -0.08572 0.22213 0.08990
161 -0.28827 -0.24554 -0.15812 0.11639 -0.23534 -0.32735 -0.04281 -0.00192 -0.08234 -0.00280 0.24557 -0.28911 0.27309 -0.05073 -0.09130 -0.29015 -0.19985 0.42408 0.04870 0.12669
162 -0.07999 -0.03749 0.13767 -0.12734 -0.14852 0.11729 -0.19084 -0.04088 -0.06894 0.05540 0.19063 -0.18781 0.01246 0.10466 -0.13737 -0.13992 0.00766 -0.10048 -0.00218 0.12049
163 0.18869 0.48076 0.17782 0.08158 -0.24943 -0.11919 -0.03048 -0.42396 0.16982 -0.06673 0.27572 -0.20057 0.01151 -0.04014 -0.29710 -0.22279 0.02024 -0.23695 0.10989 -0.08041
164 -0.01003 0.05184 0.10741 0.38162 -0.22704 -0.13605 -0.09626 -0.06499 0.26820 -0.35248 0.05078 -0.28138 0.01998 -0.22312 0.44373 0.02260 0.30250 0.02918 0.36681 0.07236
165 0.05222 0.08607 -0.11486 -0.20714 -0.08937 0.00424 -0.09780 0.07717 -0.06568 -0.26337 0.08599 0.17180 0.05155 -0.25704 0.20468 0.11403 -0.00535 -0.25777 -0.14709 -0.13903
166 -0.13727 -0.23759 -0.04117 -0.08606 0.18376 -0.09638 -0.13495 -0.17749 0.07267 0.04400 0.14470 -0.19829 -0.08492 -0.06858 0.10596 0.00749 0.05893 0.09731 -0.13466 0.01817
167 -0.04615 0.05325 0.26504 0.08470 -0.21433 0.27694 -0.03808 0.15719 -0.05034 -0.16579 0.37332 -0.08658 -0.11318 0.18469 0.08643 -0.22174 -0.33689 0.16615 -0.08661 0.04648
168 0.24131 0.48033 0.25584 -0.06101 -0.25450 -0.12869 -0.14539 -0.44317 0.17788 -0.07299 0.26898 -0.13118 0.09279 -0.13939 -0.27258 -0.23301 -0.08802 -0.24711 0.16844 -0.00600
169 0.21276 0.22654 -0.10597 0.24069 -0.01480 0.00773 0.29243 -0.47302 0.32446 0.01572 0.29571 -0.21173 -0.16873 0.36781 -0.03617 0.09612 0.01115 -0.02275 0.10910 -0.19093
170 -0.02093 0.17948 -0.08495 0.08543 0.07213 -0.01929 -0.10064 -0.05164 -0.06693 0.00554 -0.18641 0.18755 0.02995 0.00421 -0.01038 0.03979 -0.22567 -0.08918 -0.04882 0.01720
171 0.27670 0.16353 -0.04934 0.26210 0.09644 0.13214 0.32030 -0.49034 0.36154 0.02577 0.31157 -0.10070 -0.20467 0.35366 -0.03979 0.23250 0.06253 0.05531 -0.00436 -0.10677
172 -0.00188 0.01220 -0.03765 0.05062 0.09891 0.11997 0.19681 0.16924 0.05384 0.09966 -0.05461 -0.19378 0.04913 0.08244 -0.03671 -0.12929 -0.19306 0.24824 -0.14138 0.07896
173 0.00134 -0.01992 0.06460 -0.15305 0.18351 0.12482 0.20693 0.14348 -0.28886 -0.00497 -0.04602 -0.01290 -0.05120 -0.19015 -0.31710 -0.07542 -0.10370 0.34450 -0.28611 -0.03292
174 -0.02410 -0.17065 -0.21574 -0.31187 0.03662 -0.26360 -0.02863 0.03476 0.20116 0.16676 0.11072 -0.03605 -0.02029 0.08614 0.05318 0.02093 0.07664 -0.37869 -0.25863 -0.23896
175 -0.08799 -0.10712 0.03291 0.05367 0.05166 -0.01684 0.16078 -0.16519 0.19183 0.12139 -0.07228 -0.03529 0.17575 -0.08884 -0.13509 -0.21153 -0.05311 -0.07190 -0.17541 -0.06448
176 0.01698 0.02095 0.22626 0.11268 -0.31743 -0.12544 -0.28352 0.33080 -0.40526 0.01893 -0.41760 -0.50262 0.11222 -0.27359 0.10512 0.03110 0.00385 -0.39757 -0.04178 0.16951
177 -0.32053 -0.15222 0.08222 0.00487 0.07191 0.33951 -0.26760 -0.15092 0.00786 -0.05732 0.30676 -0.02786 -0.07958 -0.08000 -0.07710 0.31091 -0.31675 0.15465 0.22877 0.31188
178 -0.29339 -0.14572 0.16542 0.00181 0.05669 0.24945 -0.12889 -0.07089 0.15391 0.01874 0.14915 -0.14704 0.01251 -0.00663 -0.17857 0.23164 -0.12451 0.22236 0.13085 0.33894
179 -0.29949 0.45361 0.17524 0.36350 0.11084 -0.04744 -0.36159 0.31931 -0.12681 -0.36877 -0.43933 0.01623 -0.18723 -0.15452 0.06194 -0.09947 0.20523 -0.02203 0.27964 0.15514
180 0.01463 -0.16454 -0.06254 -0.18850 -0.00904 -0.26468 0.22623 0.19222 0.03581 -0.12757 -0.13962 -0.02072 0.10378 0.18872 0.02734 0.07693 -0.15877 0.12573 0.00314 0.00393
181 -0.17782 -0.09740 0.13169 0.21201 -0.03004 0.22310 0.15368 0.07515 -0.00716 -0.15466 0.40660 -0.01617 -0.01262 -0.00047 0.22261 0.05036 -0.26618 0.06075 -0.14719 -0.00622
182 -0.13284 0.06357 -0.18891 -0.11556 -0.05119 0.09017 0.12056 -0.09448 0.03239 -0.14577 -0.07289 -0.09354 -0.15363 -0.09414 0.13909 -0.10355 0.22028 0.09962 0.03479 -0.00762
183 0.06802 -0.10617 -0.06387 -0.31854 0.07421 -0.30782 0.29139 0.08040 0.11622 0.07331 -0.20427 0.16863 -0.01485 -0.03042 0.05953 -0.11890 -0.02916 0.31117 -0.09947 -0.17021
184 0.02687 -0.08344 0.29988 0.04703 -0.24146 0.22066 0.06387 0.31216 -0.06101 -0.14600 0.42939 0.13432 -0.01781 0.06018 0.34669 0.02821 -0.14090 0.02893 0.15208 -0.08034
185 -0.28191 0.04339 -0.01998 -0.29231 -0.15161 0.43115 0.24936 0.20276 -0.09240 0.10242 -0.05245 -0.34271 -0.31344 0.14533 -0.13088 0.09174 0.13211 0.09100 0.31032 0.01368
186 0.21236 -0.13853 -0.04270 0.21519 0.50576 -0.31763 0.23728 -0.13164 -0.08029 -0.32199 -0.04693 -0.21107 0.07883 -0.22067 -0.11987 -0.25251 -0.08412 0.06301 -0.07901 0.27118
187 0.11776 -0.06643 0.29165 0.05593 -0.02947 0.06219 0.04238 0.02720 -0.13726 0.08190 -0.22514 -0.30413 0.11008 -0.23855 -0.39131 -0.06211 -0.00671 -0.20603 0.05076 -0.05764
188 0.03311 -0.01684 -0.02415 0.35438 0.24635 0.16305 -0.03910 -0.00663 0.20142 0.38508 0.28639 0.31133 0.19754 0.28610 0.36571 0.01019 0.34273 -0.14291 0.07457 0.03848
189 -0.17087 0.22079 -0.13964 0.33106 -0.11789 -0.06153 -0.21091 -0.02996 -0.00301 -0.37248 -0.13437 -0.12771 -0.12461 -0.14518 0.47703 -0.01337 0.16710 0.19164 0.26503 0.29616
190 -0.07442 0.16252 -0.12275 0.02360 0.09451 -0.12035 0.09216 -0.03585 -0.08056 0.04841 0.06524 -0.00826 -0.06359 0.13687 0.08943 -0.19605 -0.17482 -0.09351 -0.17605 0.10076
191 -0.10909 -0.00831 0.20727 0.14471 -0.11043 -0.18294 0.01013 -0.01111 0.12261 0.09679 -0.09969 -0.06420 0.01790 -0.03098 -0.03583 -0.05467 -0.22870 -0.22183 -0.19423 0.14893
192 -0.02157 0.31700 0.03764 0.30931 0.07913 0.03469 0.39835 0.25086 0.06213 0.03324 0.17700 -0.06864 0.16930 0.19394 0.22633 -0.13442 0.23500 -0.17982 -0.15309 0.16968
193 -0.28516 -0.10408 -0.02679 0.06485 0.02587 -0.37901 0.49836 -0.12433 0.47663 -0.25671 0.46609 0.09091 -0.04170 0.05918 -0.12852 -0.08080 0.25048 -0.09924 0.11568 -0.06123
194 0.20246 0.05875 -0.34991 0.13790 -0.20682 0.24173 -0.36851 -0.00513 -0.06477 0.04008 -0.14881 0.24616 -0.25441 0.07937 -0.22092 -0.28382 0.22361 0.19465 0.03314 0.12492
195 0.19897 -0.24734 -0.00546 0.04029 0.15657 0.23911 -0.02557 -0.14697 0.06396 0.11677 -0.04030 -0.25079 -0.09858 0.15414 -0.26615 0.15576 0.13878 0.15928 0.01662 -0.22758
196 0.23801 -0.04095 0.22343 0.04123 -0.21045 0.14405 0.04307 0.05954 -0.20802 -0.05979 -0.12965 -0.23423 0.18725 0.13306 -0.32496 0.03476 0.02535 -0.26841 0.05108 -0.25393
197 -0.23983 0.09666 -0.11901 -0.08970 -0.30459 0.21196 -0.19367 -0.31669 0.09363 -0.01018 0.12786 0.09652 -0.17095 -0.30343 0.32609 0.33130 0.02738 0.05501 -0.12205 0.08058
198 -0.24011 -0.23599 -0.21581 0.30472 -0.11396 0.13449 -0.34607 0.23594 0.10427 -0.19481 -0.44609 0.47188 0.08640 -0.04865 -0.00690 -0.16114 0.06341 -0.13544 -0.14423 0.21511
199 -0.04559 0.10767 0.15454 0.39343 -0.12462 0.37656 -0.39081 0.12352 0.15707 0.23948 -0.16556 -0.26624 0.06883 0.31420 -0.09402 -0.01501 0.04811 0.30664 -0.25285 -0.01822
200 -0.05299 -0.01047 0.08748 0.34021 0.07160 0.36997 -0.29373 0.12170 -0.00548 0.21921 -0.11535 -0.25256 0.13211 0.23741 -0.04186 0.10365 0.06511 0.25136 -0.29211 0.09931
201 -0.21729 0.00682 -0.07802 0.36180 -0.02702 0.25227 -0.35128 0.00158 -0.04889 0.15025 -0.02075 -0.22833 -0.03000 0.23616 0.07170 0.03531 0.07782 0.38789 -0.33017 -0.00592
202 0.02504 0.43922 0.22324 0.22516 0.01971 0.14440 0.36830 0.34245 -0.03407 -0.14240 0.18100 0.02566 0.07003 0.14634 0.11750 0.09451 0.20151 -0.11745 -0.15423 -0.13024
203 0.00303 -0.04958 0.05583 -0.22685 0.19492 0.10298 -0.24631 0.07805 -0.06878 -0.05837 0.15849 -0.05515 0.20080 -0.14445 -0.30276 0.17244 -0.10958 -0.06504 -0.02707 -0.11045
204 0.19230 -0.15225 0.13123 -0.13919 0.34320 -0.05719 -0.29582 0.02396 0.04252 -0.10953 0.00319 0.08189 0.09999 -0.17052 -0.33247 0.20669 0.09095 0.02365 0.02800 0.01386
205 -0.07398 -0.02861 0.04977 -0.10570 -0.11391 0.12179 -0.14078 -0.04656 0.01380 0.14325 -0.05469 0.09793 0.10915 0.15120 -0.17653 -0.16219 0.15688 0.18478 0.17288 -0.19107
206 0.01837 0.04098 0.10647 -0.08889 -0.15675 0.12530 -0.34470 0.18399 -0.06617 -0.27485 0.17536 -0.00179 0.33460 -0.07680 0.06529 -0.27758 -0.37482 -0.11850 0.27229 0.07614
207 0.06486 -0.14112 -0.00138 0.26477 0.16427 -0.03079 0.18596 0.13307 0.06617 0.11136 -0.16459 -0.29689 0.21848 -0.12790 -0.34279 -0.05948 -0.18088 -0.28930 0.11515 -0.26857
208 0.18844 -0.03708 0.22237 0.24385 0.09331 -0.05705 0.14731 0.18074 -0.15533 -0.03839 -0.18949 -0.07406 -0.03040 -0.02037 -0.27907 0.02736 -0.20877 -0.04070 0.16092 -0.04987
209 -0.02246 0.06306 -0.07399 0.12175 -0.12751 -0.19706 0.02162 -0.11787 0.09963 -0.21610 0.17252 0.09276 -0.21176 -0.02865 0.27193 0.04602 0.00907 -0.18787 0.18868 -0.07036
210 -0.05622 -0.05232 -0.02528 -0.02161 0.07499 -0.58781 0.14267 -0.02659 -0.10040 -0.08814 -0.41088 -0.37226 -0.08942 -0.19247 0.00074 0.22672 -0.05897 0.09809 0.08349 0.01582
211 0.00292 0.11918 0.01539 -0.08226 0.03540 -0.52305 0.20274 -0.09391 -0.29197 -0.08645 -0.37356 -0.44092 0.09680 -0.17938 0.06606 0.21741 -0.06121 0.09476 0.02061 0.02877
212 0.21833 -0.09432 -0.13341 -0.49039 0.14732 -0.02096 0.21260 -0.39864 0.11452 -0.11510 0.11481 -0.10886 0.26949 0.05425 0.34088 -0.31602 0.04958 -0.07096 -0.11321 0.39819
213 0.08283 -0.20701 0.13976 0.14954 0.02157 0.19084 0.20577 0.07101 -0.12409 0.05906 -0.08961 -0.12470 -0.05128 0.16667 -0.17683 -0.00700 0.10540 0.08709 0.02980 -0.13602
214 -0.32170 0.00663 0.02379 0.11314 -0.15535 0.32413 -0.13523 -0.06237 0.06478 -0.01457 0.30114 0.03354 -0.13622 0.04526 0.02450 0.09017 -0.31613 0.12580 0.07961 0.26977
215 0.02501 0.03456 -0.29665 -0.36026 -0.27636 -0.22078 0.01794 -0.04583 0.06054 0.16656 -0.15377 -0.12183 0.14611 -0.07671 0.33589 0.06533 -0.18531 -0.31135 -0.10221 -0.24127
216 0.17256 -0.09976 0.00418 -0.23431 0.33660 -0.06687 -0.32364 0.06158 0.08471 -0.06406 -0.05646 -0.08809 0.09891 0.01311 -0.26432 0.16491 -0.04625 0.03726 0.02269 0.11129
217 0.13544 -0.08599 -0.09002 -0.46452 0.19195 0.02671 0.27645 -0.35998 0.12273 -0.09844 0.08529 -0.16287 0.23680 0.02290 0.33618 -0.38737 0.12846 -0.10190 -0.04998 0.43246
218 0.15235 -0.04547 -0.26768 0.10159 -0.15912 -0.02054 -0.24052 0.17119 -0.23415 0.01158 -0.21406 0.25364 -0.05258 0.08304 0.06617 -0.22451 0.39213 0.06518 0.14420 0.07661
219 0.23404 0.12405 -0.12626 -0.20623 -0.00127 0.00542 -0.21945 -0.08989 -0.03847 -0.10421 0.17216 0.00189 0.02060 0.15125 0.01756 0.05178 -0.24338 -0.22824 -0.08464 -0.14225
220 -0.05532 -0.14970 0.01628 0.04048 0.02105 -0.07679 -0.20616 0.01309 0.19816 0.07930 -0.09635 -0.11623 0.04841 0.09020 -0.12262 0.00717 -0.09698 -0.13202 0.18711 -0.06525
221 -0.27446 0.01642 -0.23445 0.02061 0.16346 -0.13411 0.24950 -0.17456 -0.15594 -0.01806 0.12560 -0.23525 -0.46208 0.32920 -0.08254 0.22402 -0.00431 -0.01018 0.34905 -0.28802
222 -0.25155 0.28855 0.08901 0.41773 0.27065 0.06768 -0.10318 -0.07979 0.22691 0.34776 0.21734 0.07141 0.11852 0.21480 0.17267 0.19733 0.23497 0.00203 -0.13282 0.04232
223 0.02082 0.10943 0.12294 0.14150 0.10113 0.05931 -0.19964 -0.24951 0.00286 0.14616 -0.07670 -0.18006 -0.16486 0.17450 0.15711 -0.07356 -0.04238 0.19224 -0.10227 -0.16133
224 0.08489 0.04955 -0.04948 -0.28861 0.29366 0.26314 0.00641 -0.02394 0.16420 -0.10477 -0.01574 0.39078 -0.11302 -0.02229 0.02422 0.17207 0.16002 -0.03114 -0.09601 -0.09176
225 -0.00513 0.11246 0.03616 -0.14122 -0.11687 -0.24830 0.28837 0.20352 -0.01954 -0.06826 -0.05453 -0.04779 -0.01243 -0.15974 -0.01702 0.24560 -0.25261 -0.10240 0.07638 0.04499
226 0.10554 -0.26191 0.00952 -0.36324 0.26295 -0.10257 0.43470 -0.20905 -0.23941 0.01884 0.09518 0.12694 0.13129 0.24849 0.00570 -0.05834 -0.29201 0.28069 0.08211 0.29583
227 0.25038 -0.40147 -0.00039 -0.36939 0.20022 -0.13371 0.43555 -0.00590 -0.27446 -0.16919 0.00515 0.09192 0.28449 0.32069 0.14762 -0.31707 -0.29584 0.23778 -0.02043 0.19817
228 -0.02451 0.19119 -0.29811 -0.21206 0.07081 -0.18162 0.07202 0.18108 0.15713 0.26785 -0.17859 0.31754 0.05924 -0.08416 0.18904 0.18767 -0.25414 -0.07446 -0.06328 -0.18114
229 0.09324 -0.02341 0.09163 -0.25962 -0.18326 -0.28189 0.24117 0.29526 -0.02216 0.01970 -0.18972 0.16092 0.06892 0.08026 0.03374 -0.00119 -0.09189 0.28806 -0.09100 -0.11049
230 0.04228 -0.14654 0.06307 -0.16510 -0.22846 -0.30003 0.11515 0.27517 -0.05182 -0.10172 0.00215 0.03396 -0.06510 0.19525 0.03959 0.09539 -0.17325 0.38151 0.00083 0.04422
231 -0.19919 0.06747 0.03855 -0.05155 -0.10010 0.17542 0.23956 0.30784 -0.07574 0.18568 0.42070 0.14191 -0.26475 0.13851 0.15894 -0.26248 -0.19502 0.19938 -0.10948 0.12779
232 0.16898 0.06404 0.21363 0.16506 -0.14212 0.05185 -0.06596 0.20439 0.11935 -0.11038 0.21765 -0.10007 0.01434 -0.03683 0.27546 -0.06509 -0.30788 -0.02597 -0.00570 -0.03777
233 -0.37194 0.00268 -0.00479 -0.34196 -0.23923 0.42085 0.33060 0.16316 -0.16423 0.21699 0.00472 -0.41971 -0.30994 0.24094 -0.20771 0.12670 0.15110 0.12048 0.28124 -0.05361
234 0.06274 0.11090 -0.07787 0.11376 -0.11281 -0.19200 -0.15730 -0.00532 0.02949 0.04929 -0.06636 0.03724 -0.02642 0.02916 0.01447 -0.05642 -0.09053 0.19525 -0.20411 0.07549
235 0.13389 0.04828 0.18325 -0.11454 -0.15591 0.07917 0.06724 -0.00152 0.11126 0.06415 0.14201 -0.09428 0.05581 -0.14577 -0.19480 -0.08510 0.04073 0.09336 0.14335 0.11740
236 0.04428 0.14850 -0.08856 0.11378 0.00837 0.00909 0.05004 0.16563 0.06893 -0.11654 0.14872 -0.16364 0.01160 -0.15323 -0.01209 -0.08011 0.08584 0.14928 -0.19573 0.07512
237 -0.07725 -0.01651 -0.03565 0.22366 -0.13368 0.11970 0.22536 0.11952 0.03859 0.09343 -0.03025 -0.26904 0.17937 0.11931 -0.39144 0.07546 -0.04353 -0.16445 0.01239 -0.16966
238 -0.00761 0.39283 0.05194 -0.29497 0.16647 0.07941 0.23243 -0.05391 0.24550 -0.14458 0.31299 0.02602 0.00676 0.01056 -0.05929 -0.12439 0.18639 -0.19667 -0.34176 0.05711
239 -0.00690 0.22968 -0.10678 0.08971 -0.04744 0.13182 -0.19307 -0.19218 -0.19699 0.00740 0.24783 0.00870 0.25103 -0.15935 -0.16052 -0.07903 -0.09251 -0.02655 -0.00194 0.11297
240 0.14875 0.20992 -0.07900 0.16056 0.04979 0.21628 0.32127 0.30507 0.08335 0.04895 0.10422 0.12118 -0.06214 0.10107 -0.06648 -0.01470 0.31713 -0.15524 -0.06219 0.13961
241 -0.00449 0.06284 0.13399 0.20083 -0.03072 0.24359 0.14396 0.18820 0.03749 0.16349 0.21062 -0.06665 -0.07641 -0.03302 0.33944 -0.08606 -0.25179 0.10762 0.04635 0.01380
242 0.19716 -0.00232 -0.10878 -0.08439 -0.08642 -0.21418 0.15160 0.08133 -0.16664 0.20033 -0.23753 0.26852 0.18635 0.12082 0.00152 0.23272 -0.00666 0.12540 -0.25704 0.11943
243 -0.03242 -0.11014 -0.04185 -0.04502 -0.18637 0.08773 0.07311 -0.04660 0.09133 -0.01196 0.07128 -0.00823 0.14242 0.21427 0.00264 0.05981 0.11510 0.08584 0.00752 -0.05995
244 0.10967 0.28502 -0.03373 -0.14826 0.27871 0.13745 -0.16875 0.01756 0.03796 -0.35472 0.01199 0.07153 0.14709 0.06000 0.12279 -0.20660 0.01144 0.14223 0.36284 0.04093
245 0.26671 -0.00569 -0.06928 0.09109 0.01822 -0.05952 -0.21311 -0.01129 0.04986 0.36831 -0.11267 -0.16564 -0.05909 0.04215 0.10717 0.02539 0.39669 0.03881 0.01003 0.52048
246 0.08719 0.16328 -0.04636 0.36803 0.15249 0.06518 0.48696 0.27168 -0.15414 0.05783 0.08942 -0.18755 -0.00472 0.30092 0.14592 -0.11436 0.30264 -0.02660 0.11166 -0.09360
247 -0.12509 0.04647 0.02188 -0.18440 -0.16252 -0.13697 0.26337 0.32988 -0.06687 -0.01908 -0.03290 -0.02933 0.04056 0.01723 0.02399 -0.06409 -0.00549 0.25596 -0.08866 -0.01352
248 -0.08700 0.02563 -0.34217 -0.22461 -0.16581 -0.22419 0.11457 0.06342 0.04259 0.28973 -0.17651 0.04281 0.20492 0.12211 0.33410 -0.08995 0.00587 -0.36532 -0.11674 -0.14803
249 -0.07706 -0.14534 -0.00443 0.26819 0.05003 0.09335 -0.09059 -0.04368 -0.08998 -0.25552 -0.12138 0.07037 0.13352 0.18605 -0.08844 0.10859 0.07140 -0.04758 0.10175 -0.08936
250 0.04706 0.35610 0.18796 0.03241 -0.05642 0.27819 0.21062 0.07840 -0.13144 -0.12491 -0.00008 0.12779 -0.02351 0.29551 0.15695 -0.00843 0.02049 -0.17576 0.04732 0.14310
251 0.41062 -0.33898 -0.55364 0.22589 -0.03622 -0.03954 -0.04867 0.34437 -0.13246 -0.01197 0.06128 0.03160 -0.28767 0.09675 0.12456 -0.12140 0.34228 -0.15608 -0.13033 0.10829
252 0.35399 -0.33470 -0.53654 0.13846 -0.11945 -0.10248 -0.06188 0.35920 -0.20725 0.08404 0.02753 0.00955 -0.23021 0.12718 0.07157 -0.13769 0.36361 -0.17693 -0.19510 0.20233
253 -0.10935 -0.19511 0.13246 0.08874 -0.00861 -0.19698 -0.09824 0.01056 0.02383 0.14157 -0.19347 -0.04018 -0.05391 0.09802 0.26827 0.10610 0.06316 0.02900 -0.15306 0.05316
254 -0.01096 -0.05645 0.16822 -0.16306 -0.14165 0.23811 0.09256 0.30580 0.19949 -0.15839 0.25428 -0.00343 -0.10303 0.20332 -0.07199 0.04736 -0.25816 0.12333 -0.10450 -0.14432
255 -0.00395 0.14252 0.12499 0.15877 -0.14002 -0.05521 0.17347 0.12136 0.13348 0.14194 0.35892 -0.03272 0.01179 0.21761 0.07311 -0.02161 -0.28733 0.15879 0.06438 -0.00427
256 -0.16831 -0.18220 0.04027 -0.15672 0.14259 -0.06213 -0.20026 0.13226 -0.13423 0.07130 -0.05105 0.06215 -0.09780 0.08066 -0.12377 -0.17707 0.05837 0.00517 -0.15868 0.12838
257 0.19043 0.29562 -0.05469 0.13926 0.08459 -0.03496 0.25887 0.18678 -0.04541 -0.14938 0.08528 -0.04003 -0.07801 0.26648 0.11526 -0.13609 0.14864 -0.09004 0.02926 -0.03249
258 0.00339 0.22842 -0.14855 0.02696 0.03259 -0.12702 -0.04373 -0.01629 -0.13013 -0.06221 0.13590 0.05159 0.02457 0.08936 -0.14821 0.11300 -0.21314 -0.08045 0.07555 0.19292
259 -0.22085 0.12371 0.10321 0.11055 -0.06767 0.05380 -0.23548 0.14674 0.20578 0.13780 -0.01527 0.12317 -0.19633 0.09253 -0.06777 -0.05634 -0.08576 -0.08888 0.01089 0.00674
260 0.04831 0.05758 -0.00130 -0.29897 -0.03562 0.31391 0.12716 -0.31827 0.04160 -0.34778 0.07499 -0.15261 0.22643 0.08701 -0.13991 0.03759 -0.18294 0.07764 -0.23457 0.04464
261 -0.13055 -0.08736 0.21953 0.13005 0.10231 -0.22588 -0.13088 -0.10212 -0.24027 0.06188 0.01554 -0.25277 -0.06627 0.01922 -0.17014 -0.06081 0.04117 0.02566 -0.01821 -0.19789
262 -0.21004 0.01304 -0.19813 -0.18838 0.11008 0.12679 -0.07209 -0.08301 -0.07240 -0.15610 0.11039 0.02266 -0.13591 0.00043 -0.13475 0.00338 0.04120 -0.13802 0.01597 -0.13367
263 -0.04700 0.25250 0.02075 -0.16513 0.25201 0.15611 -0.00055 0.00178 -0.09774 -0.36063 -0.06711 -0.14374 0.07464 0.00265 0.03242 -0.21255 -0.15676 0.13933 0.34546 -0.00890
264 0.04725 -0.10888 -0.25426 -0.14818 0.06368 -0.12946 -0.16193 -0.03254 -0.14072 -0.10986 -0.10023 0.20203 -0.12974 0.05969 -0.03780 0.02974 -0.07490 -0.12257 -0.11193 0.12864
265 0.04821 -0.10863 0.17355 -0.03417 0.21269 -0.00185 0.10615 -0.00211 0.11239 -0.16179 -0.07439 0.03235 -0.04024 0.10996 -0.08678 0.12921 0.02965 -0.10599 0.02704 -0.04738
266 -0.10808 0.15300 -0.20348 -0.04860 0.11372 0.03618 0.25859 0.20400 0.08255 0.00490 -0.01809 0.15533 0.18797 -0.16398 -0.17065 0.18905 -0.19718 0.09364 0.20041 0.08450
267 -0.12273 0.19228 -0.02390 0.06046 -0.15459 0.16939 -0.08347 -0.00667 -0.14051 -0.14087 -0.05293 -0.20066 0.04204 0.03224 -0.13969 0.08601 0.15022 0.01388 0.09245 -0.21047
268 0.04074 -0.06149 -0.19167 -0.17841 0.05630 -0.23744 -0.15179 -0.13192 0.23398 0.32963 -0.04362 0.10742 0.07258 -0.16865 0.19575 -0.02865 -0.19234 -0.34974 0.03431 -0.31272
269 -0.01353 -0.15889 0.10157 0.00196 -0.16064 0.14618 0.06732 0.10710 0.14675 -0.00874 0.02039 -0.08757 0.09583 0.03010 -0.06104 0.01890 -0.07476 -0.17137 0.10606 -0.13632
270 0.14717 0.24082 -0.24565 -0.18821 0.02135 -0.41387 0.05472 -0.08639 -0.29891 -0.25960 -0.31157 0.34466 0.25057 -0.12778 0.01851 0.08528 -0.02471 0.14562 -0.26716 0.04300
271 -0.34108 0.15305 -0.25241 -0.06172 0.05799 -0.15421 0.26746 -0.16837 -0.26089 -0.10902 0.04418 -0.17487 -0.42607 0.29568 -0.00566 0.16536 0.07912 -0.01964 0.33415 -0.25213
272 0.16931 -0.21559 0.16888 -0.11994 -0.04374 -0.02697 -0.14236 0.02664 -0.12745 0.29307 0.08075 0.05769 0.15095 0.18941 -0.02390 0.00058 0.13699 0.16957 0.20865 0.11604
273 0.05940 0.13743 0.08661 -0.04514 0.09016 -0.11576 0.06153 -0.05319 0.12595 -0.07157 0.00836 0.09828 -0.08922 -0.02106 0.09018 -0.15562 0.10484 0.00717 0.03632 0.09546
274 -0.03479 -0.02830 0.27451 -0.25963 0.03619 0.29606 0.00882 -0.17982 -0.20053 -0.37445 -0.03166 -0.22486 0.10812 0.10655 0.06021 -0.05061 -0.33307 0.19794 0.05511 0.05919
275 0.06929 0.00912 -0.00530 -0.20626 0.00813 -0.08228 0.09709 0.18479 -0.21093 -0.08127 0.11620 0.10555 0.11783 -0.30140 -0.25122 0.08537 -0.18054 0.20771 -0.22666 0.02414
276 0.13726 0.14799 0.08011 0.04181 0.11374 0.12541 0.13573 0.16921 0.12210 0.24391 -0.15230 0.18539 0.00665 -0.13466 0.12945 -0.14893 -0.06150 -0.04218 0.19025 -0.16465
277 0.11696 -0.11241 0.16108 -0.06053 0.03679 0.02448 0.04963 -0.22313 -0.13249 0.09303 -0.09651 0.18573 -0.18317 0.05244 0.13965 -0.05086 -0.06335 -0.18536 0.09898 -0.13154
278 -0.32965 -0.25442 -0.22375 0.06743 -0.15965 -0.32377 -0.04931 -0.10722 0.00337 0.02035 0.31456 -0.19019 0.22120 -0.03993 -0.17267 -0.34456 -0.24372 0.40313 -0.00380 0.18341
279 0.06404 0.06954 -0.01939 -0.16723 0.17230 -0.05965 -0.12855 -0.06843 0.25053 0.05338 0.01722 -0.19786 -0.07283 0.11176 -0.16456 0.14685 -0.04214 -0.16597 -0.04529 -0.02545
280 0.16040 -0.18244 -0.08489 -0.14944 0.13249 0.00634 0.17901 0.09670 -0.16557 -0.02345 0.12504 0.04473 -0.12685 -0.20054 0.10015 0.09462 -0.11241 0.12841 0.12521 0.04186
281 -0.01158 -0.29695 0.06750 -0.11160 0.16741 0.41783 0.32687 -0.10389 0.20640 0.29268 0.22892 0.01149 -0.34099 0.03623 -0.06026 0.08804 0.29308 -0.24461 0.37981 0.11293
282 0.14662 0.15786 0.23511 -0.13921 -0.13348 0.30060 -0.02163 -0.19682 -0.23173 -0.41331 0.11929 -0.09762 -0.08683 0.13708 -0.02841 0.17610 -0.31031 0.17069 -0.11019 -0.13319
283 0.20161 -0.03796 -0.03247 0.17947 0.00632 -0.06291 -0.25083 -0.10804 0.07523 0.29883 -0.14734 -0.18656 -0.13604 0.02472 0.04719 -0.04800 0.38740 0.03748 -0.02056 0.46860
284 0.01890 -0.33681 0.01580 -0.06049 0.11730 0.41547 0.31362 -0.00771 0.13094 0.28931 0.23573 0.06489 -0.38147 -0.02311 0.02897 -0.00517 0.30423 -0.27098 0.30821 0.18766
285 0.08289 0.19628 -0.12538 -0.12378 0.16347 -0.17424 -0.05752 -0.11820 -0.15327 -0.12718 -0.13863 0.06304 0.08499 -0.08202 0.19293 0.13360 0.29011 0.02056 0.02800 -0.24602
286 -0.30487 0.08274 0.08015 0.04185 -0.07666 -0.05061 -0.19532 -0.37091 -0.05966 0.23765 -0.06009 0.00440 -0.11152 -0.06263 -0.09188 0.26940 0.00950 0.06017 -0.04165 0.02070
287 0.02451 -0.19760 0.09333 -0.02844 -0.02094 -0.41632 0.08007 0.34358 0.19346 0.15929 -0.19974 -0.06701 -0.27909 -0.25053 0.25850 -0.31545 -0.20679 0.33290 -0.01916 0.00474
288 -0.09412 -0.17471 -0.12797 0.26209 0.16991 -0.07329 0.11443 0.04878 -0.21605 0.08276 -0.29689 0.23781 0.10675 -0.30546 -0.04826 0.10155 -0.05113 -0.24198 0.01427 0.06654
289 -0.09034 -0.00660 -0.00386 -0.03886 -0.12557 0.21644 -0.04706 -0.14054 0.05012 -0.04571 0.05768 -0.33539 -0.11029 -0.08786 -0.11750 0.11820 -0.07854 0.06120 -0.16066 -0.16446
290 -0.01098 -0.18543 0.06220 -0.14592 -0.05388 -0.02741 -0.12954 -0.04874 0.07204 -0.12608 -0.13994 -0.26263 0.22679 -0.12938 0.01253 0.11080 0.15338 -0.16813 0.01059 -0.09301
291 -0.10863 0.21064 0.01197 0.42461 0.30842 -0.10511 -0.04894 -0.06905 0.21480 0.40069 0.06075 0.22121 -0.00253 0.12191 0.18843 0.25712 0.17351 0.03444 0.00369 0.01366
292 0.28430 -0.02329 0.31679 -0.02057 0.30268 0.18250 0.29270 -0.06058 -0.15439 -0.13708 -0.21859 -0.14078 -0.04221 -0.21681 -0.09159 -0.15573 -0.25235 0.41582 -0.40155 0.17807
293 0.10934 0.10639 0.09126 0.15643 0.03917 -0.06330 0.10290 -0.09437 -0.09033 0.07101 0.11322 -0.21515 0.00786 -0.14394 -0.02308 0.15945 -0.20137 -0.09657 0.08353 0.16209
294 0.03726 -0.14864 0.14023 -0.07987 0.01885 -0.14217 -0.11907 -0.08213 -0.13339 0.09589 0.01211 0.08313 -0.02473 0.00197 0.01039 0.03452 0.08670 -0.00986 -0.11429 0.11404
295 0.14831 -0.11827 -0.03802 -0.04579 0.08304 -0.40531 -0.01748 0.32864 0.27137 0.16007 -0.16933 0.00942 -0.28004 -0.23268 0.16497 -0.32222 -0.15095 0.29981 -0.09889 -0.00786
296 -0.13214 0.11163 -0.06742 -0.13714 -0.17708 -0.10068 0.02324 -0.03603 -0.03844 -0.11830 -0.03237 0.13302 -0.24265 0.15885 0.07906 -0.11743 0.19976 -0.16835 0.03923 -0.23409
297 -0.05061 0.06450 -0.09525 -0.07783 0.15516 0.07988 -0.08927 -0.19029 -0.00209 -0.14817 -0.08304 -0.13005 -0.07127 -0.03939 -0.06001 0.11345 0.03430 0.00958 0.07989 -0.11212
298 0.14495 0.23917 -0.20838 -0.22745 -0.13197 -0.03153 0.14840 0.04568 0.05663 0.20154 -0.10140 0.26840 -0.01685 -0.08942 0.01333 0.18978 -0.12391 0.13141 -0.03142 -0.18886
299 0.32729 -0.06200 -0.21225 0.15415 0.21591 0.03661 -0.23848 0.17535 0.11775 -0.28992 0.11346 -0.14831 0.25508 -0.22055 -0.11355 0.40179 -0.05470 0.00842 0.12446 -0.23560
300 -0.05011 0.26451 0.04754 -0.25571 0.27747 0.08256 -0.06466 0.05070 0.09746 -0.23492 -0.17219 0.02530 0.27374 0.14492 0.07493 -0.21143 -0.12069 -0.05789 0.24057 -0.10548
301 -0.11781 0.13786 -0.11339 -0.12720 -0.08362 0.15242 0.13780 0.13519 0.10729 -0.05545 -0.12441 0.05720 -0.08807 0.10927 -0.12784 -0.09835 0.18280 -0.04567 0.00620 -0.10953
302 -0.04425 0.20332 -0.03926 -0.27946 0.08915 0.12643 -0.11927 0.18881 -0.00611 -0.25042 -0.12342 -0.06365 0.26524 0.03303 0.12447 -0.05318 -0.02678 -0.09028 0.16249 -0.19301
303 -0.06064 0.01127 0.07583 0.02662 0.00704 -0.11001 0.07888 0.09982 0.22568 0.19068 0.03788 -0.16590 -0.10502 0.01371 0.05623 -0.17204 0.05227 -0.00644 0.06699 -0.12846
304 -0.06784 0.21345 -0.19943 0.10574 0.11554 -0.02662 -0.20219 -0.08183 -0.15486 -0.07918 -0.01270 -0.16918 -0.16417 0.00219 0.09633 0.05474 -0.16289 0.24568 -0.10370 0.13958
305 0.17485 0.00252 -0.00291 -0.09213 0.09065 0.02824 0.16018 0.07954 0.08305 0.10362 -0.13041 0.03093 0.14015 0.04992 0.01572 -0.23366 -0.02050 0.08822 0.04346 0.15541
306 -0.03359 0.04870 -0.13122 -0.16207 0.10077 -0.16052 -0.00227 -0.12287 0.07690 0.05364 0.03036 -0.05299 0.08423 -0.22880 0.12814 0.19609 -0.09544 -0.16580 0.16171 0.14328
307 0.01103 0.14140 0.00015 0.41068 -0.17701 -0.23376 -0.00865 0.10491 -0.12232 -0.19411 -0.32742 0.21673 -0.36343 -0.16229 -0.27557 -0.08121 -0.14812 0.32733 -0.10278 0.02664
308 0.21475 -0.34289 0.08404 -0.41164 0.28322 -0.19586 0.42542 -0.22282 -0.29192 -0.06303 -0.04904 0.21812 0.28905 0.27300 0.18606 -0.19324 -0.14817 0.30415 0.08635 0.21770
